{"learner":{"attributes":{"scikit_learn":"{\"_estimator_type\": \"regressor\"}"},"feature_names":["Year","Month","Day","DayOfWeek","Quarter","IsWeekend","Minimum","Maximum"],"feature_types":["int","int","int","int","int","int","float","float"],"gradient_booster":{"model":{"gbtree_model_param":{"num_parallel_tree":"1","num_trees":"100"},"iteration_indptr":[0,1,2,3,4,5,6,7,8,9,10,11,12,13,14,15,16,17,18,19,20,21,22,23,24,25,26,27,28,29,30,31,32,33,34,35,36,37,38,39,40,41,42,43,44,45,46,47,48,49,50,51,52,53,54,55,56,57,58,59,60,61,62,63,64,65,66,67,68,69,70,71,72,73,74,75,76,77,78,79,80,81,82,83,84,85,86,87,88,89,90,91,92,93,94,95,96,97,98,99,100],"tree_info":[0,0,0,0,0,0,0,0,0,0,0,0,0,0,0,0,0,0,0,0,0,0,0,0,0,0,0,0,0,0,0,0,0,0,0,0,0,0,0,0,0,0,0,0,0,0,0,0,0,0,0,0,0,0,0,0,0,0,0,0,0,0,0,0,0,0,0,0,0,0,0,0,0,0,0,0,0,0,0,0,0,0,0,0,0,0,0,0,0,0,0,0,0,0,0,0,0,0,0,0],"trees":[{"base_weights":[-2.5089017E-7,-1.1546878E1,3.5650986E1,-2.523767E1,-3.3337898E0,2.5505198E1,6.403436E1,-3.2975204E1,-2.0754606E1,-1.0146754E1,1.7450932E0,1.7960205E1,3.1795502E1,5.495204E1,8.301772E0,-3.686583E0,-3.0303226E0,-2.2511282E1,-1.5820189E0,-1.1600793E1,-5.7848277E0,-1.877056E0,7.2713804E0,1.3777483E0,1.8220896E0,2.7417488E0,3.7121186E0,4.9304156E0,5.8576922E0,-2.4166148E0,-2.0336778E0,-1.291147E0,-1.0456505E0,-7.633869E-1,-5.466583E-1,-2.7648038E-1,-7.60533E-3,4.4256565E-1,8.0549395E-1],"categories":[],"categories_nodes":[],"categories_segments":[],"categories_sizes":[],"default_left":[0,0,0,0,0,0,0,0,0,0,0,0,0,0,0,0,0,0,0,0,0,0,0,0,0,0,0,0,0,0,0,0,0,0,0,0,0,0,0],"id":0,"left_children":[1,3,5,7,9,11,13,15,17,19,21,23,25,27,-1,-1,-1,29,-1,31,33,35,37,-1,-1,-1,-1,-1,-1,-1,-1,-1,-1,-1,-1,-1,-1,-1,-1],"loss_changes":[1.3461202E6,2.7765175E5,2.2874406E5,3.1436562E4,5.3478188E4,2.7478E4,3.164475E4,2.3965938E3,4.7494375E3,4.118875E3,1.7748744E4,4.446875E1,6.4666562E3,8.046875E1,0E0,0E0,0E0,1.0630938E3,0E0,6.058906E2,5.654004E1,8.5676587E2,7.470078E2,0E0,0E0,0E0,0E0,0E0,0E0,0E0,0E0,0E0,0E0,0E0,0E0,0E0,0E0,0E0,0E0],"parents":[2147483647,0,0,1,1,2,2,3,3,4,4,5,5,6,6,7,7,8,8,9,9,10,10,11,11,12,12,13,13,17,17,19,19,20,20,21,21,22,22],"right_children":[2,4,6,8,10,12,14,16,18,20,22,24,26,28,-1,-1,-1,30,-1,32,34,36,38,-1,-1,-1,-1,-1,-1,-1,-1,-1,-1,-1,-1,-1,-1,-1,-1],"split_conditions":[7E1,4.8E1,1E2,3E1,5.8E1,8E1,1.4E2,2.8E1,4.3E1,5.2E1,6E1,8E1,9E1,1.1E2,8.301772E0,-3.686583E0,-3.0303226E0,3.4E1,-1.5820189E0,4.5E1,4.8E1,5.5E1,7E1,1.3777483E0,1.8220896E0,2.7417488E0,3.7121186E0,4.9304156E0,5.8576922E0,-2.4166148E0,-2.0336778E0,-1.291147E0,-1.0456505E0,-7.633869E-1,-5.466583E-1,-2.7648038E-1,-7.60533E-3,4.4256565E-1,8.0549395E-1],"split_indices":[6,7,6,6,7,6,7,7,7,7,6,7,6,6,0,0,0,6,0,6,6,6,7,0,0,0,0,0,0,0,0,0,0,0,0,0,0,0,0],"split_type":[0,0,0,0,0,0,0,0,0,0,0,0,0,0,0,0,0,0,0,0,0,0,0,0,0,0,0,0,0,0,0,0,0,0,0,0,0,0,0],"sum_hessian":[3.268E3,2.469E3,7.99E2,9.25E2,1.544E3,5.9E2,2.09E2,3.37E2,5.88E2,6.59E2,8.85E2,2.7E2,3.2E2,1.44E2,6.5E1,1.32E2,2.05E2,4.31E2,1.57E2,4.93E2,1.66E2,5.35E2,3.5E2,1.9E1,2.51E2,1.79E2,1.41E2,6.2E1,8.2E1,2.39E2,1.92E2,2.25E2,2.68E2,2.1E1,1.45E2,3.58E2,1.77E2,7.7E1,2.73E2],"tree_param":{"num_deleted":"0","num_feature":"8","num_nodes":"39","size_leaf_vector":"1"}},{"base_weights":[4.072048E-3,-1.03984375E1,3.2121815E1,-2.272767E1,-3.002147E0,2.2971012E1,5.7721832E1,-2.9697556E1,-1.8689388E1,-9.137606E0,1.571673E0,1.6175991E1,2.8636057E1,4.8277335E0,7.2465675E1,-3.3206964E0,-2.7287614E0,-2.0270456E1,-1.4248182E0,-1.0445445E1,-5.2141905E0,-1.6898792E0,6.547799E0,1.5385314E1,1.7595185E0,2.4167194E0,3.2927055E0,6.4337296E0,8.26477E0,-2.1759603E0,-1.831364E0,-1.1636481E0,-9.4224274E-1,-6.905183E-1,-4.92367E-1,-2.4890922E-1,-6.8489523E-3,3.9887646E-1,7.252387E-1,1.4926137E0,1.8964022E0],"categories":[],"categories_nodes":[],"categories_segments":[],"categories_sizes":[],"default_left":[0,0,0,0,0,0,0,0,0,0,0,0,0,0,0,0,0,0,0,0,0,0,0,0,0,0,0,0,0,0,0,0,0,0,0,0,0,0,0,0,0],"id":1,"left_children":[1,3,5,7,9,11,13,15,17,19,21,23,25,-1,27,-1,-1,29,-1,31,33,35,37,39,-1,-1,-1,-1,-1,-1,-1,-1,-1,-1,-1,-1,-1,-1,-1,-1,-1],"loss_changes":[1.0925238E6,2.2517253E5,1.8608269E5,2.55085E4,4.33709E4,2.2286781E4,2.5743688E4,1.9525E3,3.8470469E3,3.332125E3,1.4390754E4,3.3390625E1,5.3596875E3,0E0,1.3037188E3,0E0,0E0,8.603594E2,0E0,4.9226953E2,4.804297E1,6.943977E2,6.039463E2,1.6015625E1,0E0,0E0,0E0,0E0,0E0,0E0,0E0,0E0,0E0,0E0,0E0,0E0,0E0,0E0,0E0,0E0,0E0],"parents":[2147483647,0,0,1,1,2,2,3,3,4,4,5,5,6,6,7,7,8,8,9,9,10,10,11,11,12,12,14,14,17,17,19,19,20,20,21,21,22,22,23,23],"right_children":[2,4,6,8,10,12,14,16,18,20,22,24,26,-1,28,-1,-1,30,-1,32,34,36,38,40,-1,-1,-1,-1,-1,-1,-1,-1,-1,-1,-1,-1,-1,-1,-1,-1,-1],"split_conditions":[7E1,4.8E1,1E2,3E1,5.8E1,8E1,1.2E2,2.8E1,4.3E1,5.2E1,6E1,7.5E1,9.5E1,4.8277335E0,1.4E2,-3.3206964E0,-2.7287614E0,3.4E1,-1.4248182E0,4.3E1,4.8E1,5.5E1,7E1,8.5E1,1.7595185E0,2.4167194E0,3.2927055E0,6.4337296E0,8.26477E0,-2.1759603E0,-1.831364E0,-1.1636481E0,-9.4224274E-1,-6.905183E-1,-4.92367E-1,-2.4890922E-1,-6.8489523E-3,3.9887646E-1,7.252387E-1,1.4926137E0,1.8964022E0],"split_indices":[6,7,6,6,7,6,6,7,7,7,6,6,7,0,6,0,0,6,0,6,6,6,7,7,0,0,0,0,0,0,0,0,0,0,0,0,0,0,0,0,0],"split_type":[0,0,0,0,0,0,0,0,0,0,0,0,0,0,0,0,0,0,0,0,0,0,0,0,0,0,0,0,0,0,0,0,0,0,0,0,0,0,0,0,0],"sum_hessian":[3.268E3,2.469E3,7.99E2,9.25E2,1.544E3,5.9E2,2.09E2,3.37E2,5.88E2,6.59E2,8.85E2,2.7E2,3.2E2,1.3E2,7.9E1,1.32E2,2.05E2,4.31E2,1.57E2,4.93E2,1.66E2,5.35E2,3.5E2,1.81E2,8.9E1,1.6E2,1.6E2,4.8E1,3.1E1,2.39E2,1.92E2,2.23E2,2.7E2,2.1E1,1.45E2,3.58E2,1.77E2,7.7E1,2.73E2,1.65E2,1.6E1],"tree_param":{"num_deleted":"0","num_feature":"8","num_nodes":"41","size_leaf_vector":"1"}},{"base_weights":[8.706471E-3,-9.364223E0,2.8947615E1,-2.0467302E1,-2.7034996E0,2.0692284E1,5.204263E1,-2.6745699E1,-1.6829672E1,-5.520491E0,5.428685E0,1.4577391E1,2.5790237E1,4.4581738E1,6.7645454E0,-2.9911232E0,-2.45721E0,-1.8252687E1,-1.2832379E0,-9.263475E0,-2.4390543E0,4.5842E0,7.967067E-1,1.1050639E0,1.4799445E0,2.2195213E0,3.016569E0,3.9700897E0,4.7749343E0,-2.0707395E0,-1.7197198E0,-1.0469499E0,-8.301617E-1,-3.0629173E-1,-4.699727E-2,1.8967241E-1,5.074021E-1],"categories":[],"categories_nodes":[],"categories_segments":[],"categories_sizes":[],"default_left":[0,0,0,0,0,0,0,0,0,0,0,0,0,0,0,0,0,0,0,0,0,0,0,0,0,0,0,0,0,0,0,0,0,0,0,0,0],"id":2,"left_children":[1,3,5,7,9,11,13,15,17,19,21,23,25,27,-1,-1,-1,29,-1,31,33,35,-1,-1,-1,-1,-1,-1,-1,-1,-1,-1,-1,-1,-1,-1,-1],"loss_changes":[8.8696225E5,1.826124E5,1.5144869E5,2.0698312E4,3.5423285E4,1.8047578E4,2.1430562E4,1.5906719E3,3.1161406E3,1.3218172E4,8.1663965E2,4.86875E1,4.37975E3,3.4609375E2,0E0,0E0,0E0,7.6315625E2,0E0,5.1398047E2,7.7370483E2,3.8660742E2,0E0,0E0,0E0,0E0,0E0,0E0,0E0,0E0,0E0,0E0,0E0,0E0,0E0,0E0,0E0],"parents":[2147483647,0,0,1,1,2,2,3,3,4,4,5,5,6,6,7,7,8,8,9,9,10,10,11,11,12,12,13,13,17,17,19,19,20,20,21,21],"right_children":[2,4,6,8,10,12,14,16,18,20,22,24,26,28,-1,-1,-1,30,-1,32,34,36,-1,-1,-1,-1,-1,-1,-1,-1,-1,-1,-1,-1,-1,-1,-1],"split_conditions":[7E1,4.8E1,1E2,3E1,6.2E1,8E1,1.4E2,2.8E1,4.3E1,5E1,6.5E1,8E1,9E1,1.1E2,6.7645454E0,-2.9911232E0,-2.45721E0,3.8E1,-1.2832379E0,4.5E1,5.5E1,5.8E1,7.967067E-1,1.1050639E0,1.4799445E0,2.2195213E0,3.016569E0,3.9700897E0,4.7749343E0,-2.0707395E0,-1.7197198E0,-1.0469499E0,-8.301617E-1,-3.0629173E-1,-4.699727E-2,1.8967241E-1,5.074021E-1],"split_indices":[6,7,6,6,7,6,7,7,7,6,6,7,6,6,0,0,0,7,0,6,6,6,0,0,0,0,0,0,0,0,0,0,0,0,0,0,0],"split_type":[0,0,0,0,0,0,0,0,0,0,0,0,0,0,0,0,0,0,0,0,0,0,0,0,0,0,0,0,0,0,0,0,0,0,0,0,0],"sum_hessian":[3.268E3,2.469E3,7.99E2,9.25E2,1.544E3,5.9E2,2.09E2,3.37E2,5.88E2,1.147E3,3.97E2,2.7E2,3.2E2,1.44E2,6.5E1,1.32E2,2.05E2,4.31E2,1.57E2,5.17E2,6.3E2,3E2,9.7E1,1.9E1,2.51E2,1.79E2,1.41E2,6.2E1,8.2E1,1.24E2,3.07E2,2.25E2,2.92E2,4.78E2,1.52E2,4.7E1,2.53E2],"tree_param":{"num_deleted":"0","num_feature":"8","num_nodes":"37","size_leaf_vector":"1"}},{"base_weights":[1.152891E-2,-8.525216E0,2.5810757E1,-1.8431936E1,-2.5316477E0,1.8431423E1,4.691222E1,-2.43107E1,-1.5272607E1,-7.421766E0,1.1978693E0,1.2945575E1,2.3227526E1,4.1058197E1,6.34787E0,-2.6712384E0,-2.211437E0,-1.6481459E1,-1.1288147E0,-8.477942E0,-4.308982E0,-1.3347158E0,5.168776E0,1.2211739E1,1.4391714E0,1.9559754E0,2.675103E0,3.5793824E0,4.408525E0,-1.877723E0,-1.5445677E0,-9.435752E-1,-7.6549643E-1,-5.4536253E-1,-4.1110545E-1,-1.6159871E-1,1.6021456E-1,4.3989745E-1,7.099647E-1,1.1804036E0,1.5786284E0],"categories":[],"categories_nodes":[],"categories_segments":[],"categories_sizes":[],"default_left":[0,0,0,0,0,0,0,0,0,0,0,0,0,0,0,0,0,0,0,0,0,0,0,0,0,0,0,0,0,0,0,0,0,0,0,0,0,0,0,0,0],"id":3,"left_children":[1,3,5,7,9,11,13,15,17,19,21,23,25,27,-1,-1,-1,29,-1,31,33,35,37,39,-1,-1,-1,-1,-1,-1,-1,-1,-1,-1,-1,-1,-1,-1,-1,-1,-1],"loss_changes":[7.2018925E5,1.4584167E5,1.2573144E5,1.682725E4,2.7949168E4,1.5590969E4,1.7759594E4,1.1077969E3,2.728E3,2.1431836E3,8.756193E3,1.25640625E2,3.6251719E3,9.3984375E2,0E0,0E0,0E0,8.085703E2,0E0,3.1716406E2,1.6094482E1,4.4205E2,4.726543E2,9.784375E1,0E0,0E0,0E0,0E0,0E0,0E0,0E0,0E0,0E0,0E0,0E0,0E0,0E0,0E0,0E0,0E0,0E0],"parents":[2147483647,0,0,1,1,2,2,3,3,4,4,5,5,6,6,7,7,8,8,9,9,10,10,11,11,12,12,13,13,17,17,19,19,20,20,21,21,22,22,23,23],"right_children":[2,4,6,8,10,12,14,16,18,20,22,24,26,28,-1,-1,-1,30,-1,32,34,36,38,40,-1,-1,-1,-1,-1,-1,-1,-1,-1,-1,-1,-1,-1,-1,-1,-1,-1],"split_conditions":[7.5E1,4.8E1,1E2,3.4E1,6E1,8E1,1.3E2,2.4E1,3.8E1,5.2E1,6E1,7.5E1,9.5E1,1.1E2,6.34787E0,-2.6712384E0,-2.211437E0,3.8E1,-1.1288147E0,4.3E1,4.8E1,6.2E1,6.5E1,8.5E1,1.4391714E0,1.9559754E0,2.675103E0,3.5793824E0,4.408525E0,-1.877723E0,-1.5445677E0,-9.435752E-1,-7.6549643E-1,-5.4536253E-1,-4.1110545E-1,-1.6159871E-1,1.6021456E-1,4.3989745E-1,7.099647E-1,1.1804036E0,1.5786284E0],"split_indices":[7,7,6,7,7,6,6,6,6,7,6,6,7,6,0,0,0,7,0,6,6,7,6,7,0,0,0,0,0,0,0,0,0,0,0,0,0,0,0,0,0],"split_type":[0,0,0,0,0,0,0,0,0,0,0,0,0,0,0,0,0,0,0,0,0,0,0,0,0,0,0,0,0,0,0,0,0,0,0,0,0,0,0,0,0],"sum_hessian":[3.268E3,2.456E3,8.12E2,9.25E2,1.531E3,6.03E2,2.09E2,3.21E2,6.04E2,6.62E2,8.69E2,2.83E2,3.2E2,1.57E2,5.2E1,1.48E2,1.73E2,4.61E2,1.43E2,4.93E2,1.69E2,5.31E2,3.38E2,1.94E2,8.9E1,1.6E2,1.6E2,6.2E1,9.5E1,1.38E2,3.23E2,2.23E2,2.7E2,2.1E1,1.48E2,4.85E2,4.6E1,2.44E2,9.4E1,1.78E2,1.6E1],"tree_param":{"num_deleted":"0","num_feature":"8","num_nodes":"41","size_leaf_vector":"1"}},{"base_weights":[1.4112241E-2,-7.6771517E0,2.3258173E1,-1.659893E1,-2.279473E0,1.7103231E1,4.391433E1,-2.1699776E1,-1.3643607E1,-6.7014685E0,1.0662274E0,1.3849663E1,2.4819345E0,3.8311817E1,5.7250605E0,-2.709236E0,-2.0779099E1,-1.5963014E0,-1.1968524E1,-7.6336083E0,-3.9039924E0,-1.2099576E0,4.6552916E0,1.1399896E1,1.7379322E0,3.5839791E0,4.3823905E0,-2.2327213E0,-1.9683188E0,-1.3129663E0,-1.0010237E0,-8.489354E-1,-6.8862766E-1,-4.9330503E-1,-3.7221894E-1,-1.8179397E-1,3.0017227E-3,3.960874E-1,6.3971555E-1,1.0630225E0,1.2852439E0],"categories":[],"categories_nodes":[],"categories_segments":[],"categories_sizes":[],"default_left":[0,0,0,0,0,0,0,0,0,0,0,0,0,0,0,0,0,0,0,0,0,0,0,0,0,0,0,0,0,0,0,0,0,0,0,0,0,0,0,0,0],"id":4,"left_children":[1,3,5,7,9,11,13,15,17,19,21,23,-1,25,-1,-1,27,-1,29,31,33,35,37,39,-1,-1,-1,-1,-1,-1,-1,-1,-1,-1,-1,-1,-1,-1,-1,-1,-1],"loss_changes":[5.84598E5,1.1828366E5,1.0261166E5,1.3663047E4,2.2672584E4,1.5422156E4,1.1703906E4,1.1151719E3,2.0973281E3,1.6912383E3,7.137497E3,3.6410781E3,0E0,2.5526562E2,0E0,0E0,5.7625E1,0E0,6.553164E2,2.574668E2,1.2881592E1,4.033817E2,3.8470898E2,1.5963672E2,0E0,0E0,0E0,0E0,0E0,0E0,0E0,0E0,0E0,0E0,0E0,0E0,0E0,0E0,0E0,0E0,0E0],"parents":[2147483647,0,0,1,1,2,2,3,3,4,4,5,5,6,6,7,7,8,8,9,9,10,10,11,11,13,13,16,16,18,18,19,19,20,20,21,21,22,22,23,23],"right_children":[2,4,6,8,10,12,14,16,18,20,22,24,-1,26,-1,-1,28,-1,30,32,34,36,38,40,-1,-1,-1,-1,-1,-1,-1,-1,-1,-1,-1,-1,-1,-1,-1,-1,-1],"split_conditions":[7.5E1,4.8E1,1.2E2,3E1,5.8E1,9.5E1,1.3E2,2.4E1,3.5E1,5.2E1,6E1,8.5E1,2.4819345E0,1.3E2,5.7250605E0,-2.709236E0,2.5E1,-1.5963014E0,4E1,4.5E1,4.8E1,5.5E1,6.5E1,7.5E1,1.7379322E0,3.5839791E0,4.3823905E0,-2.2327213E0,-1.9683188E0,-1.3129663E0,-1.0010237E0,-8.489354E-1,-6.8862766E-1,-4.9330503E-1,-3.7221894E-1,-1.8179397E-1,3.0017227E-3,3.960874E-1,6.3971555E-1,1.0630225E0,1.2852439E0],"split_indices":[7,7,7,6,7,7,6,7,6,7,6,7,0,7,0,0,6,0,6,6,6,6,6,6,0,0,0,0,0,0,0,0,0,0,0,0,0,0,0,0,0],"split_type":[0,0,0,0,0,0,0,0,0,0,0,0,0,0,0,0,0,0,0,0,0,0,0,0,0,0,0,0,0,0,0,0,0,0,0,0,0,0,0,0,0],"sum_hessian":[3.268E3,2.456E3,8.12E2,9.25E2,1.531E3,6.27E2,1.85E2,3.37E2,5.88E2,6.59E2,8.72E2,4.43E2,1.84E2,1.33E2,5.2E1,4.5E1,2.92E2,2.43E2,3.45E2,4.93E2,1.66E2,5.34E2,3.38E2,2.64E2,1.79E2,9.7E1,3.6E1,1.13E2,1.79E2,2.13E2,1.32E2,2.25E2,2.68E2,2.1E1,1.45E2,3.58E2,1.76E2,2.44E2,9.4E1,1.78E2,8.6E1],"tree_param":{"num_deleted":"0","num_feature":"8","num_nodes":"41","size_leaf_vector":"1"}},{"base_weights":[1.5115714E-2,-6.8418965E0,2.1186123E1,-1.4950723E1,-1.9774208E0,1.5071622E1,3.8074112E1,-1.9739874E1,-1.2377073E1,-4.039815E0,3.9763625E0,1.0667709E1,1.876563E1,3.1662986E0,4.8256687E1,-2.444202E0,-1.8887751E0,-1.4472703E1,-1.078785E1,-6.766414E0,-1.7950946E0,1.9197799E0,4.697331E0,7.869572E-1,1.0847452E0,1.6160195E0,2.1981437E0,4.1958747E0,5.639239E0,-1.5324496E0,-1.34438E0,-1.1828452E0,-9.01674E-1,-7.651244E-1,-6.0716075E-1,-2.2798519E-1,-2.6572336E-2,-1.1915033E-1,2.1203779E-1,4.1173798E-1,5.81522E-1],"categories":[],"categories_nodes":[],"categories_segments":[],"categories_sizes":[],"default_left":[0,0,0,0,0,0,0,0,0,0,0,0,0,0,0,0,0,0,0,0,0,0,0,0,0,0,0,0,0,0,0,0,0,0,0,0,0,0,0,0,0],"id":5,"left_children":[1,3,5,7,9,11,13,15,17,19,21,23,25,-1,27,-1,-1,29,31,33,35,37,39,-1,-1,-1,-1,-1,-1,-1,-1,-1,-1,-1,-1,-1,-1,-1,-1,-1,-1],"loss_changes":[4.747052E5,9.7400055E4,8.203547E4,1.1169172E4,1.8987191E4,9.381719E3,1.2311781E4,8.285469E2,1.8587734E3,7.014135E3,5.811094E2,5.093164E1,2.3175469E3,0E0,1.7329062E3,0E0,0E0,2.0097656E1,5.3471484E2,2.720039E2,4.6720093E2,6.805875E1,1.6666309E2,0E0,0E0,0E0,0E0,0E0,0E0,0E0,0E0,0E0,0E0,0E0,0E0,0E0,0E0,0E0,0E0,0E0,0E0],"parents":[2147483647,0,0,1,1,2,2,3,3,4,4,5,5,6,6,7,7,8,8,9,9,10,10,11,11,12,12,14,14,17,17,18,18,19,19,20,20,21,21,22,22],"right_children":[2,4,6,8,10,12,14,16,18,20,22,24,26,-1,28,-1,-1,30,32,34,36,38,40,-1,-1,-1,-1,-1,-1,-1,-1,-1,-1,-1,-1,-1,-1,-1,-1,-1,-1],"split_conditions":[7E1,4.8E1,1.1E2,3.4E1,6.2E1,8E1,1.2E2,2.4E1,3.4E1,5E1,7E1,8E1,9E1,3.1662986E0,1.4E2,-2.444202E0,-1.8887751E0,3.6E1,4E1,4.3E1,5.5E1,5.5E1,6.5E1,7.869572E-1,1.0847452E0,1.6160195E0,2.1981437E0,4.1958747E0,5.639239E0,-1.5324496E0,-1.34438E0,-1.1828452E0,-9.01674E-1,-7.651244E-1,-6.0716075E-1,-2.2798519E-1,-2.6572336E-2,-1.1915033E-1,2.1203779E-1,4.1173798E-1,5.81522E-1],"split_indices":[6,7,7,7,7,6,6,7,6,6,7,7,6,0,6,0,0,7,6,6,6,6,6,0,0,0,0,0,0,0,0,0,0,0,0,0,0,0,0,0,0],"split_type":[0,0,0,0,0,0,0,0,0,0,0,0,0,0,0,0,0,0,0,0,0,0,0,0,0,0,0,0,0,0,0,0,0,0,0,0,0,0,0,0,0],"sum_hessian":[3.268E3,2.469E3,7.99E2,9.25E2,1.544E3,5.88E2,2.11E2,3.21E2,6.04E2,1.147E3,3.97E2,2.7E2,3.18E2,1.32E2,7.9E1,4.5E1,2.76E2,2.57E2,3.47E2,5.17E2,6.3E2,1.04E2,2.93E2,1.9E1,2.51E2,1.79E2,1.39E2,4.8E1,3.1E1,1.33E2,1.24E2,2.15E2,1.32E2,2.23E2,2.94E2,4.78E2,1.52E2,6E0,9.8E1,1.96E2,9.7E1],"tree_param":{"num_deleted":"0","num_feature":"8","num_nodes":"41","size_leaf_vector":"1"}},{"base_weights":[1.6312132E-2,-6.228277E0,1.8888317E1,-1.3465688E1,-1.849641E0,1.3858435E1,3.576938E1,-1.7822872E1,-1.1168397E1,-5.444562E0,8.9206266E-1,1.123145E1,2.0088287E1,3.2032757E1,4.995111E0,-1.9666737E1,-1.6122786E0,-1.3056161E1,-9.715055E0,-6.1961193E0,-3.2285984E0,-1.154004E0,3.508907E0,9.240561E0,1.4100084E0,1.9146594E0,2.2670836E0,2.9158397E0,3.6743226E0,-2.218188E0,-1.8460909E0,-1.3795809E0,-1.2080243E0,-1.0651082E0,-8.1218475E-1,-6.8838346E-1,-5.595302E-1,-3.8826036E-1,-3.1103656E-1,-1.5844356E-1,-2.2504171E-2,1.7647277E-1,4.1295382E-1,8.572098E-1,1.0509691E0],"categories":[],"categories_nodes":[],"categories_segments":[],"categories_sizes":[],"default_left":[0,0,0,0,0,0,0,0,0,0,0,0,0,0,0,0,0,0,0,0,0,0,0,0,0,0,0,0,0,0,0,0,0,0,0,0,0,0,0,0,0,0,0,0,0],"id":6,"left_children":[1,3,5,7,9,11,13,15,17,19,21,23,25,27,-1,29,-1,31,33,35,37,39,41,43,-1,-1,-1,-1,-1,-1,-1,-1,-1,-1,-1,-1,-1,-1,-1,-1,-1,-1,-1,-1,-1],"loss_changes":[3.853625E5,7.783739E4,6.853591E4,9.069953E3,1.5104567E4,1.0052055E4,8.256391E3,6.797656E2,1.5439844E3,1.0841719E3,4.6622363E3,2.4054531E3,1.584375E1,9.595469E2,0E0,3.936328E1,0E0,2.2464844E1,4.3246094E2,1.6559766E2,1.0689697E0,1.9517236E2,4.062246E2,1.3472852E2,0E0,0E0,0E0,0E0,0E0,0E0,0E0,0E0,0E0,0E0,0E0,0E0,0E0,0E0,0E0,0E0,0E0,0E0,0E0,0E0,0E0],"parents":[2147483647,0,0,1,1,2,2,3,3,4,4,5,5,6,6,7,7,8,8,9,9,10,10,11,11,12,12,13,13,15,15,17,17,18,18,19,19,20,20,21,21,22,22,23,23],"right_children":[2,4,6,8,10,12,14,16,18,20,22,24,26,28,-1,30,-1,32,34,36,38,40,42,44,-1,-1,-1,-1,-1,-1,-1,-1,-1,-1,-1,-1,-1,-1,-1,-1,-1,-1,-1,-1,-1],"split_conditions":[7.5E1,4.8E1,1.2E2,3.2E1,6E1,9.5E1,1.5E2,2.2E1,3.4E1,5.2E1,6.5E1,8.5E1,9.5E1,1.3E2,4.995111E0,2.2E1,-1.6122786E0,3.8E1,4E1,4.5E1,4.8E1,5.5E1,7E1,7.5E1,1.4100084E0,1.9146594E0,2.2670836E0,2.9158397E0,3.6743226E0,-2.218188E0,-1.8460909E0,-1.3795809E0,-1.2080243E0,-1.0651082E0,-8.1218475E-1,-6.8838346E-1,-5.595302E-1,-3.8826036E-1,-3.1103656E-1,-1.5844356E-1,-2.2504171E-2,1.7647277E-1,4.1295382E-1,8.572098E-1,1.0509691E0],"split_indices":[7,7,7,7,7,7,7,6,6,7,7,7,6,7,0,7,0,7,6,6,6,6,7,6,0,0,0,0,0,0,0,0,0,0,0,0,0,0,0,0,0,0,0,0,0],"split_type":[0,0,0,0,0,0,0,0,0,0,0,0,0,0,0,0,0,0,0,0,0,0,0,0,0,0,0,0,0,0,0,0,0,0,0,0,0,0,0,0,0,0,0,0,0],"sum_hessian":[3.268E3,2.456E3,8.12E2,9.25E2,1.531E3,6.27E2,1.85E2,3.17E2,6.08E2,6.62E2,8.69E2,4.43E2,1.84E2,1.49E2,3.6E1,1.47E2,1.7E2,2.61E2,3.47E2,4.93E2,1.69E2,4.88E2,3.81E2,2.64E2,1.79E2,1.41E2,4.3E1,9.7E1,5.2E1,4.2E1,1.05E2,1.41E2,1.2E2,2.15E2,1.32E2,2.25E2,2.68E2,2.1E1,1.48E2,3.33E2,1.55E2,1.01E2,2.8E2,1.78E2,8.6E1],"tree_param":{"num_deleted":"0","num_feature":"8","num_nodes":"45","size_leaf_vector":"1"}},{"base_weights":[1.6946055E-2,-5.551379E0,1.720913E1,-1.2130071E1,-1.604829E0,1.2630771E1,3.2254726E1,-1.5970279E1,-1.0007002E1,-4.9030433E0,8.734506E-1,1.0252997E1,1.8102064E1,2.8873415E1,4.5091E0,-1.7909043E0,-1.4573209E0,-1.0871818E1,-7.545426E-1,-5.57651E0,-2.9014516E0,-8.597302E-1,3.5028293E0,8.546341E0,1.2848251E0,1.7245419E0,2.045528E0,2.627231E0,3.313823E0,-1.2323278E0,-1.0177168E0,-6.2042224E-1,-5.0390685E-1,-3.511992E-1,-2.7910912E-1,-1.3021366E-1,2.9912712E-3,1.8878652E-1,3.9497796E-1,7.89193E-1,9.584901E-1],"categories":[],"categories_nodes":[],"categories_segments":[],"categories_sizes":[],"default_left":[0,0,0,0,0,0,0,0,0,0,0,0,0,0,0,0,0,0,0,0,0,0,0,0,0,0,0,0,0,0,0,0,0,0,0,0,0,0,0,0,0],"id":7,"left_children":[1,3,5,7,9,11,13,15,17,19,21,23,25,27,-1,-1,-1,29,-1,31,33,35,37,39,-1,-1,-1,-1,-1,-1,-1,-1,-1,-1,-1,-1,-1,-1,-1,-1,-1],"loss_changes":[3.1304234E5,6.4109477E4,5.469989E4,7.3898906E3,1.2632954E4,7.8152344E3,6.7710938E3,6.274219E2,1.1931211E3,8.7754785E2,4.0270088E3,1.7991836E3,2.0175781E1,7.933594E2,0E0,0E0,0E0,3.1922656E2,0E0,1.3572949E2,1.5848389E0,2.0981909E2,2.4589795E2,1.03103516E2,0E0,0E0,0E0,0E0,0E0,0E0,0E0,0E0,0E0,0E0,0E0,0E0,0E0,0E0,0E0,0E0,0E0],"parents":[2147483647,0,0,1,1,2,2,3,3,4,4,5,5,6,6,7,7,8,8,9,9,10,10,11,11,12,12,13,13,17,17,19,19,20,20,21,21,22,22,23,23],"right_children":[2,4,6,8,10,12,14,16,18,20,22,24,26,28,-1,-1,-1,30,-1,32,34,36,38,40,-1,-1,-1,-1,-1,-1,-1,-1,-1,-1,-1,-1,-1,-1,-1,-1,-1],"split_conditions":[7E1,4.8E1,1.2E2,2.8E1,6E1,9.5E1,1.5E2,2.8E1,4.2E1,5.5E1,6E1,9E1,9.5E1,1.3E2,4.5091E0,-1.7909043E0,-1.4573209E0,4E1,-7.545426E-1,4.3E1,4.8E1,5.5E1,7E1,7.5E1,1.2848251E0,1.7245419E0,2.045528E0,2.627231E0,3.313823E0,-1.2323278E0,-1.0177168E0,-6.2042224E-1,-5.0390685E-1,-3.511992E-1,-2.7910912E-1,-1.3021366E-1,2.9912712E-3,1.8878652E-1,3.9497796E-1,7.89193E-1,9.584901E-1],"split_indices":[6,7,7,6,7,7,7,7,7,7,6,7,6,7,0,0,0,7,0,6,6,6,7,6,0,0,0,0,0,0,0,0,0,0,0,0,0,0,0,0,0],"split_type":[0,0,0,0,0,0,0,0,0,0,0,0,0,0,0,0,0,0,0,0,0,0,0,0,0,0,0,0,0,0,0,0,0,0,0,0,0,0,0,0,0],"sum_hessian":[3.268E3,2.469E3,7.99E2,9.25E2,1.544E3,6.14E2,1.85E2,3.27E2,5.98E2,6.62E2,8.82E2,4.3E2,1.84E2,1.49E2,3.6E1,1.32E2,1.95E2,4.4E2,1.58E2,4.94E2,1.68E2,5.32E2,3.5E2,2.62E2,1.68E2,1.41E2,4.3E1,9.7E1,5.2E1,1.37E2,3.03E2,2.23E2,2.71E2,2.1E1,1.47E2,3.55E2,1.77E2,7.7E1,2.73E2,1.66E2,9.6E1],"tree_param":{"num_deleted":"0","num_feature":"8","num_nodes":"41","size_leaf_vector":"1"}},{"base_weights":[1.8219516E-2,-5.053271E0,1.5344953E1,-1.0923817E1,-1.5015877E0,1.1250883E1,2.908544E1,-1.4471474E1,-9.053408E0,-4.4274797E0,7.1214664E-1,9.210181E0,1.6564808E0,2.6025684E1,4.070377E0,-1.8108937E0,-1.3789738E1,-1.0616086E1,-7.850894E0,-5.02355E0,-2.637741E0,-9.6045184E-1,2.8545322E0,7.580751E0,1.1643952E0,2.367189E0,2.9886932E0,-1.4802715E0,-1.3021535E0,-1.1202615E0,-9.883629E-1,-8.662638E-1,-6.640767E-1,-5.58657E-1,-4.539639E-1,-3.1767556E-1,-2.538453E-1,-1.300719E-1,-2.1444885E-2,2.3401311E-1,4.3893477E-1,6.969815E-1,8.6362946E-1],"categories":[],"categories_nodes":[],"categories_segments":[],"categories_sizes":[],"default_left":[0,0,0,0,0,0,0,0,0,0,0,0,0,0,0,0,0,0,0,0,0,0,0,0,0,0,0,0,0,0,0,0,0,0,0,0,0,0,0,0,0,0,0],"id":8,"left_children":[1,3,5,7,9,11,13,15,17,19,21,23,-1,25,-1,-1,27,29,31,33,35,37,39,41,-1,-1,-1,-1,-1,-1,-1,-1,-1,-1,-1,-1,-1,-1,-1,-1,-1,-1,-1],"loss_changes":[2.5417489E5,5.1212832E4,4.5407688E4,6.0135234E3,9.926143E3,6.6575547E3,5.552797E3,5.3885156E2,1.0610547E3,6.9084375E2,3.131007E3,1.7200703E3,0E0,6.558047E2,0E0,0E0,1.8914062E1,1.8339844E0,2.843203E2,1.0922949E2,8.734131E-1,1.243566E2,2.9211108E2,1.1779004E2,0E0,0E0,0E0,0E0,0E0,0E0,0E0,0E0,0E0,0E0,0E0,0E0,0E0,0E0,0E0,0E0,0E0,0E0,0E0],"parents":[2147483647,0,0,1,1,2,2,3,3,4,4,5,5,6,6,7,7,8,8,9,9,10,10,11,11,13,13,16,16,17,17,18,18,19,19,20,20,21,21,22,22,23,23],"right_children":[2,4,6,8,10,12,14,16,18,20,22,24,-1,26,-1,-1,28,30,32,34,36,38,40,42,-1,-1,-1,-1,-1,-1,-1,-1,-1,-1,-1,-1,-1,-1,-1,-1,-1,-1,-1],"split_conditions":[7.5E1,4.8E1,1.2E2,3.2E1,5.8E1,8.5E1,1.5E2,2E1,3.4E1,5.2E1,6.4E1,9E1,1.6564808E0,1.3E2,4.070377E0,-1.8108937E0,2.5E1,3.6E1,3.8E1,4.3E1,4.8E1,5.5E1,6.5E1,7.5E1,1.1643952E0,2.367189E0,2.9886932E0,-1.4802715E0,-1.3021535E0,-1.1202615E0,-9.883629E-1,-8.662638E-1,-6.640767E-1,-5.58657E-1,-4.539639E-1,-3.1767556E-1,-2.538453E-1,-1.300719E-1,-2.1444885E-2,2.3401311E-1,4.3893477E-1,6.969815E-1,8.6362946E-1],"split_indices":[7,7,7,7,7,6,7,6,6,7,7,7,0,7,0,0,6,7,6,6,6,6,6,6,0,0,0,0,0,0,0,0,0,0,0,0,0,0,0,0,0,0,0],"split_type":[0,0,0,0,0,0,0,0,0,0,0,0,0,0,0,0,0,0,0,0,0,0,0,0,0,0,0,0,0,0,0,0,0,0,0,0,0,0,0,0,0,0,0],"sum_hessian":[3.268E3,2.456E3,8.12E2,9.25E2,1.531E3,6.27E2,1.85E2,3.17E2,6.08E2,6.59E2,8.72E2,4.55E2,1.72E2,1.49E2,3.6E1,4.6E1,2.71E2,2.61E2,3.47E2,4.93E2,1.66E2,4.9E2,3.82E2,2.75E2,1.8E2,9.7E1,5.2E1,1.09E2,1.62E2,1.37E2,1.24E2,2.04E2,1.43E2,2.23E2,2.7E2,2.1E1,1.45E2,3.36E2,1.54E2,2.88E2,9.4E1,1.79E2,9.6E1],"tree_param":{"num_deleted":"0","num_feature":"8","num_nodes":"43","size_leaf_vector":"1"}},{"base_weights":[1.7778376E-2,-4.504061E0,1.3978936E1,-9.840324E0,-1.302842E0,9.905317E0,2.5230743E1,-1.29641075E1,-8.113379E0,-3.987131E0,6.9821167E-1,7.0069113E0,1.2336548E1,2.1999908E1,3.4508156E1,-1.638175E0,-1.2362781E1,-9.512313E-1,-7.0629654E0,-4.5213223E0,-2.370193E0,-7.165142E-1,2.8464506E0,4.8957488E-1,7.1466584E0,1.0624408E0,1.4449753E0,1.8983042E0,2.3813412E0,2.9885898E0,4.1206627E0,-1.329452E0,-1.1665244E0,-7.747881E-1,-5.9078157E-1,-5.026589E-1,-4.0816495E-1,-2.873519E-1,-2.2774802E-1,-8.718314E-2,9.146897E-2,1.4714389E-1,3.2325074E-1,6.769857E-1,7.749681E-1],"categories":[],"categories_nodes":[],"categories_segments":[],"categories_sizes":[],"default_left":[0,0,0,0,0,0,0,0,0,0,0,0,0,0,0,0,0,0,0,0,0,0,0,0,0,0,0,0,0,0,0,0,0,0,0,0,0,0,0,0,0,0,0,0,0],"id":9,"left_children":[1,3,5,7,9,11,13,15,17,19,21,23,25,27,29,-1,31,-1,33,35,37,39,41,-1,43,-1,-1,-1,-1,-1,-1,-1,-1,-1,-1,-1,-1,-1,-1,-1,-1,-1,-1,-1,-1],"loss_changes":[2.0643534E5,4.218108E4,3.6418547E4,4.8902188E3,8.301606E3,4.0640625E3,5.5952656E3,4.7155078E2,8.1302344E2,5.593623E2,2.6947434E3,4.4964844E1,1.00065625E3,4.233203E2,4.094961E2,0E0,2.8847656E1,0E0,2.2797656E2,8.944824E1,1.2019653E0,1.3634177E2,1.8209644E2,0E0,4.794922E0,0E0,0E0,0E0,0E0,0E0,0E0,0E0,0E0,0E0,0E0,0E0,0E0,0E0,0E0,0E0,0E0,0E0,0E0,0E0,0E0],"parents":[2147483647,0,0,1,1,2,2,3,3,4,4,5,5,6,6,7,7,8,8,9,9,10,10,11,11,12,12,13,13,14,14,16,16,18,18,19,19,20,20,21,21,22,22,24,24],"right_children":[2,4,6,8,10,12,14,16,18,20,22,24,26,28,30,-1,32,-1,34,36,38,40,42,-1,44,-1,-1,-1,-1,-1,-1,-1,-1,-1,-1,-1,-1,-1,-1,-1,-1,-1,-1,-1,-1],"split_conditions":[7E1,4.8E1,1.1E2,2.8E1,5.8E1,8E1,1.3E2,2.4E1,3.5E1,5.5E1,5.8E1,8E1,9E1,1.1E2,1.6E2,-1.638175E0,2.5E1,-9.512313E-1,4E1,4.5E1,4.8E1,6.4E1,7E1,4.8957488E-1,7.5E1,1.0624408E0,1.4449753E0,1.8983042E0,2.3813412E0,2.9885898E0,4.1206627E0,-1.329452E0,-1.1665244E0,-7.747881E-1,-5.9078157E-1,-5.026589E-1,-4.0816495E-1,-2.873519E-1,-2.2774802E-1,-8.718314E-2,9.146897E-2,1.4714389E-1,3.2325074E-1,6.769857E-1,7.749681E-1],"split_indices":[6,7,7,6,7,6,6,7,6,7,6,7,6,6,7,0,6,0,6,6,6,7,7,0,6,0,0,0,0,0,0,0,0,0,0,0,0,0,0,0,0,0,0,0,0],"split_type":[0,0,0,0,0,0,0,0,0,0,0,0,0,0,0,0,0,0,0,0,0,0,0,0,0,0,0,0,0,0,0,0,0,0,0,0,0,0,0,0,0,0,0,0,0],"sum_hessian":[3.268E3,2.469E3,7.99E2,9.25E2,1.544E3,5.88E2,2.11E2,3.27E2,5.98E2,6.59E2,8.85E2,2.7E2,3.18E2,1.59E2,5.2E1,4.5E1,2.82E2,2.53E2,3.45E2,4.94E2,1.65E2,5.34E2,3.51E2,1.9E1,2.51E2,1.79E2,1.39E2,6.4E1,9.5E1,3.4E1,1.8E1,1.13E2,1.69E2,2.13E2,1.32E2,2.25E2,2.69E2,2.1E1,1.44E2,4.88E2,4.6E1,7.8E1,2.73E2,1.62E2,8.9E1],"tree_param":{"num_deleted":"0","num_feature":"8","num_nodes":"45","size_leaf_vector":"1"}},{"base_weights":[1.858141E-2,-4.0566516E0,1.260084E1,-8.863258E0,-1.1731727E0,8.9223385E0,2.276139E1,-1.1722699E1,-7.319446E0,-2.6783319E0,1.7310416E0,6.237806E0,1.1054172E1,1.8788477E0,2.9081842E1,-1.4779187E0,-1.1174782E1,-8.581444E0,-6.366421E0,-4.0086308E0,-1.2866809E0,4.1822135E-1,2.910131E0,5.7630424E0,6.9908756E-1,9.391784E-1,1.2860674E0,2.6093442E0,3.7302845E0,-1.2026737E0,-1.0545367E0,-9.1058683E-1,-7.954804E-1,-7.027869E-1,-5.380565E-1,-4.5299718E-1,-3.5924643E-1,-2.0493822E-1,-9.5613286E-2,-1.0954216E-2,1.2572432E-1,2.4858578E-1,3.664042E-1,4.4306493E-1,5.9041566E-1],"categories":[],"categories_nodes":[],"categories_segments":[],"categories_sizes":[],"default_left":[0,0,0,0,0,0,0,0,0,0,0,0,0,0,0,0,0,0,0,0,0,0,0,0,0,0,0,0,0,0,0,0,0,0,0,0,0,0,0,0,0,0,0,0,0],"id":10,"left_children":[1,3,5,7,9,11,13,15,17,19,21,23,25,-1,27,-1,29,31,33,35,37,39,41,43,-1,-1,-1,-1,-1,-1,-1,-1,-1,-1,-1,-1,-1,-1,-1,-1,-1,-1,-1,-1,-1],"loss_changes":[1.6767117E5,3.4223176E4,2.9697398E4,4.0019766E3,6.758302E3,3.301871E3,4.7770547E3,3.7577344E2,6.718086E2,1.8794775E3,8.1609106E2,5.3742188E1,8.612344E2,0E0,9.920547E2,0E0,2.2246094E1,1.2021484E1,1.8911426E2,9.654785E1,1.2384314E2,1.11281815E2,7.9813965E1,5.239746E0,0E0,0E0,0E0,0E0,0E0,0E0,0E0,0E0,0E0,0E0,0E0,0E0,0E0,0E0,0E0,0E0,0E0,0E0,0E0,0E0,0E0],"parents":[2147483647,0,0,1,1,2,2,3,3,4,4,5,5,6,6,7,7,8,8,9,9,10,10,11,11,12,12,14,14,16,16,17,17,18,18,19,19,20,20,21,21,22,22,23,23],"right_children":[2,4,6,8,10,12,14,16,18,20,22,24,26,-1,28,-1,30,32,34,36,38,40,42,44,-1,-1,-1,-1,-1,-1,-1,-1,-1,-1,-1,-1,-1,-1,-1,-1,-1,-1,-1,-1,-1],"split_conditions":[7E1,4.8E1,1.1E2,3.5E1,5.5E1,9E1,1.2E2,2.4E1,3.4E1,4.8E1,7E1,7.5E1,1E2,1.8788477E0,1.6E2,-1.4779187E0,2.5E1,3.6E1,3.8E1,4.5E1,6E1,6.4E1,6.5E1,8E1,6.9908756E-1,9.391784E-1,1.2860674E0,2.6093442E0,3.7302845E0,-1.2026737E0,-1.0545367E0,-9.1058683E-1,-7.954804E-1,-7.027869E-1,-5.380565E-1,-4.5299718E-1,-3.5924643E-1,-2.0493822E-1,-9.5613286E-2,-1.0954216E-2,1.2572432E-1,2.4858578E-1,3.664042E-1,4.4306493E-1,5.9041566E-1],"split_indices":[6,7,7,7,6,7,6,7,6,6,7,6,7,0,7,0,6,7,6,6,7,7,6,7,0,0,0,0,0,0,0,0,0,0,0,0,0,0,0,0,0,0,0,0,0],"split_type":[0,0,0,0,0,0,0,0,0,0,0,0,0,0,0,0,0,0,0,0,0,0,0,0,0,0,0,0,0,0,0,0,0,0,0,0,0,0,0,0,0,0,0,0,0],"sum_hessian":[3.268E3,2.469E3,7.99E2,9.25E2,1.544E3,5.88E2,2.11E2,3.22E2,6.03E2,1.017E3,5.27E2,2.62E2,3.26E2,1.32E2,7.9E1,4.5E1,2.77E2,2.56E2,3.47E2,5.19E2,4.98E2,2.5E2,2.77E2,1.66E2,9.6E1,1.73E2,1.53E2,6.1E1,1.8E1,1.1E2,1.67E2,1.32E2,1.24E2,2.04E2,1.43E2,2.26E2,2.93E2,1.49E2,3.49E2,1.54E2,9.6E1,1.8E2,9.7E1,1.9E1,1.47E2],"tree_param":{"num_deleted":"0","num_feature":"8","num_nodes":"45","size_leaf_vector":"1"}},{"base_weights":[1.8286493E-2,-3.6939385E0,1.1237128E1,-7.9841495E0,-1.0983582E0,8.211905E0,2.1390911E1,-1.0594501E1,-6.607999E0,-3.234052E0,5.175139E-1,6.683558E0,1.1978658E1,1.9250786E1,3.1088684E0,-1.3453612E0,-1.0110673E1,-7.74453E0,-5.733346E0,-3.6705203E0,-1.9130525E-1,-7.0502126E-1,2.090733E0,5.5406704E0,8.4580034E-1,1.1371197E0,1.3597833E0,1.7299441E0,2.2215974E0,-1.0902402E0,-9.552876E-1,-8.212724E-1,-7.165689E-1,-6.382181E-1,-4.884266E-1,-4.0790173E-1,-3.3206165E-1,-9.854572E-2,-9.4688395E-3,1.693608E-1,3.2726416E-1,5.101237E-1,6.298993E-1],"categories":[],"categories_nodes":[],"categories_segments":[],"categories_sizes":[],"default_left":[0,0,0,0,0,0,0,0,0,0,0,0,0,0,0,0,0,0,0,0,0,0,0,0,0,0,0,0,0,0,0,0,0,0,0,0,0,0,0,0,0,0,0],"id":11,"left_children":[1,3,5,7,9,11,13,15,17,19,21,23,25,27,-1,-1,29,31,33,35,-1,37,39,41,-1,-1,-1,-1,-1,-1,-1,-1,-1,-1,-1,-1,-1,-1,-1,-1,-1,-1,-1],"loss_changes":[1.3618511E5,2.7351371E4,2.4797648E4,3.2563984E3,5.288618E3,3.5352734E3,3.2618516E3,3.038711E2,5.609883E2,3.735166E2,1.6805287E3,8.637051E2,2.2423828E1,5.1251953E2,0E0,0E0,1.7738281E1,1.2155273E1,1.605459E2,5.7208008E1,0E0,8.411705E1,1.7375513E2,5.9838867E1,0E0,0E0,0E0,0E0,0E0,0E0,0E0,0E0,0E0,0E0,0E0,0E0,0E0,0E0,0E0,0E0,0E0,0E0,0E0],"parents":[2147483647,0,0,1,1,2,2,3,3,4,4,5,5,6,6,7,7,8,8,9,9,10,10,11,11,12,12,13,13,16,16,17,17,18,18,19,19,21,21,22,22,23,23],"right_children":[2,4,6,8,10,12,14,16,18,20,22,24,26,28,-1,-1,30,32,34,36,-1,38,40,42,-1,-1,-1,-1,-1,-1,-1,-1,-1,-1,-1,-1,-1,-1,-1,-1,-1,-1,-1],"split_conditions":[7.5E1,4.8E1,1.2E2,3.2E1,5.8E1,1E2,1.4E2,2.2E1,3.4E1,5.5E1,6.5E1,9E1,9.5E1,1.3E2,3.1088684E0,-1.3453612E0,2.4E1,3.6E1,4.5E1,4.3E1,-1.9130525E-1,5.5E1,6.5E1,7.5E1,8.4580034E-1,1.1371197E0,1.3597833E0,1.7299441E0,2.2215974E0,-1.0902402E0,-9.552876E-1,-8.212724E-1,-7.165689E-1,-6.382181E-1,-4.884266E-1,-4.0790173E-1,-3.3206165E-1,-9.854572E-2,-9.4688395E-3,1.693608E-1,3.2726416E-1,5.101237E-1,6.298993E-1],"split_indices":[7,7,7,7,7,7,6,7,6,7,7,7,6,7,0,0,6,7,7,6,0,6,6,6,0,0,0,0,0,0,0,0,0,0,0,0,0,0,0,0,0,0,0],"split_type":[0,0,0,0,0,0,0,0,0,0,0,0,0,0,0,0,0,0,0,0,0,0,0,0,0,0,0,0,0,0,0,0,0,0,0,0,0,0,0,0,0,0,0],"sum_hessian":[3.268E3,2.456E3,8.12E2,9.25E2,1.531E3,6.27E2,1.85E2,3.17E2,6.08E2,6.59E2,8.72E2,4.48E2,1.79E2,1.54E2,3.1E1,4.2E1,2.75E2,2.61E2,3.47E2,4.94E2,1.65E2,4.91E2,3.81E2,2.75E2,1.73E2,1.36E2,4.3E1,9.7E1,5.7E1,1.06E2,1.69E2,1.37E2,1.24E2,1.93E2,1.54E2,2.23E2,2.71E2,3.36E2,1.55E2,2.87E2,9.4E1,1.79E2,9.6E1],"tree_param":{"num_deleted":"0","num_feature":"8","num_nodes":"43","size_leaf_vector":"1"}},{"base_weights":[1.7970376E-2,-3.2917538E0,1.0236721E1,-7.1822553E0,-9.4573075E-1,7.4820776E0,1.9289782E1,-9.545713E0,-5.942448E0,-2.168306E0,1.4062762E0,6.1243343E0,1.0915594E0,1.7351202E1,2.8076963E0,-1.2139539E0,-9.107017E0,-6.4739704E0,-4.426035E-1,-3.2504659E0,-1.042765E0,3.1860325E-1,2.3832533E0,5.0687084E0,7.6243633E-1,1.5587151E0,2.0032682E0,-9.8282176E-1,-8.606699E-1,-7.368542E-1,-6.025992E-1,-3.6747313E-1,-2.9161602E-1,-1.6557582E-1,-7.770744E-2,-8.925004E-3,9.6704304E-2,2.0513943E-1,2.971858E-1,4.6858573E-1,5.6755894E-1],"categories":[],"categories_nodes":[],"categories_segments":[],"categories_sizes":[],"default_left":[0,0,0,0,0,0,0,0,0,0,0,0,0,0,0,0,0,0,0,0,0,0,0,0,0,0,0,0,0,0,0,0,0,0,0,0,0,0,0,0,0],"id":12,"left_children":[1,3,5,7,9,11,13,15,17,19,21,23,-1,25,-1,-1,27,29,-1,31,33,35,37,39,-1,-1,-1,-1,-1,-1,-1,-1,-1,-1,-1,-1,-1,-1,-1,-1,-1],"loss_changes":[1.1059535E5,2.2537406E4,1.980604E4,2.665461E3,4.437079E3,2.8001758E3,2.6812734E3,2.5129492E2,4.6462305E2,1.2328965E3,5.603102E2,6.6283203E2,0E0,4.209453E2,0E0,0E0,1.5E1,1.3633594E2,0E0,6.2612793E1,7.9983765E1,6.646785E1,4.82063E1,3.451172E1,0E0,0E0,0E0,0E0,0E0,0E0,0E0,0E0,0E0,0E0,0E0,0E0,0E0,0E0,0E0,0E0,0E0],"parents":[2147483647,0,0,1,1,2,2,3,3,4,4,5,5,6,6,7,7,8,8,9,9,10,10,11,11,13,13,16,16,17,17,19,19,20,20,21,21,22,22,23,23],"right_children":[2,4,6,8,10,12,14,16,18,20,22,24,-1,26,-1,-1,28,30,-1,32,34,36,38,40,-1,-1,-1,-1,-1,-1,-1,-1,-1,-1,-1,-1,-1,-1,-1,-1,-1],"split_conditions":[7E1,5E1,1.2E2,3.2E1,5.5E1,8.5E1,1.4E2,2.2E1,4.2E1,4.8E1,7E1,9E1,1.0915594E0,1.3E2,2.8076963E0,-1.2139539E0,2.2E1,4E1,-4.426035E-1,4.3E1,6E1,6.4E1,6.5E1,7.5E1,7.6243633E-1,1.5587151E0,2.0032682E0,-9.8282176E-1,-8.606699E-1,-7.368542E-1,-6.025992E-1,-3.6747313E-1,-2.9161602E-1,-1.6557582E-1,-7.770744E-2,-8.925004E-3,9.6704304E-2,2.0513943E-1,2.971858E-1,4.6858573E-1,5.6755894E-1],"split_indices":[6,7,7,7,6,6,6,7,7,6,7,7,0,7,0,0,6,7,0,6,7,7,6,6,0,0,0,0,0,0,0,0,0,0,0,0,0,0,0,0,0],"split_type":[0,0,0,0,0,0,0,0,0,0,0,0,0,0,0,0,0,0,0,0,0,0,0,0,0,0,0,0,0,0,0,0,0,0,0,0,0,0,0,0,0],"sum_hessian":[3.268E3,2.469E3,7.99E2,9.28E2,1.541E3,6.14E2,1.85E2,3.17E2,6.11E2,1.014E3,5.27E2,4.42E2,1.72E2,1.54E2,3.1E1,4.2E1,2.75E2,4.5E2,1.61E2,5.16E2,4.98E2,2.5E2,2.77E2,2.62E2,1.8E2,9.7E1,5.7E1,1.05E2,1.7E2,1.45E2,3.05E2,2.23E2,2.93E2,1.49E2,3.49E2,1.54E2,9.6E1,1.8E2,9.7E1,1.66E2,9.6E1],"tree_param":{"num_deleted":"0","num_feature":"8","num_nodes":"41","size_leaf_vector":"1"}},{"base_weights":[1.7430494E-2,-2.9380107E0,9.310754E0,-6.478381E0,-8.291925E-1,6.577185E0,1.6719679E1,-8.554211E0,-5.330885E0,-1.7559023E0,1.7739663E0,4.661855E0,8.117651E0,1.4496387E1,2.311604E1,-1.0835725E0,-8.143624E0,-6.273019E-1,-4.6333313E0,-2.9795103E0,-8.2709205E-1,1.3704368E0,2.7693528E-1,4.4036666E-1,5.100616E-1,6.924705E-1,9.4663715E-1,1.236771E0,1.5786675E0,1.996416E0,2.9156997E0,-8.763121E-1,-7.6839375E-1,-5.1249516E-1,-3.9012793E-1,-3.306768E-1,-2.6990497E-1,-1.5339594E-1,-5.7958663E-2,7.263323E-2,1.7210218E-1],"categories":[],"categories_nodes":[],"categories_segments":[],"categories_sizes":[],"default_left":[0,0,0,0,0,0,0,0,0,0,0,0,0,0,0,0,0,0,0,0,0,0,0,0,0,0,0,0,0,0,0,0,0,0,0,0,0,0,0,0,0],"id":13,"left_children":[1,3,5,7,9,11,13,15,17,19,21,23,25,27,29,-1,31,-1,33,35,37,39,-1,-1,-1,-1,-1,-1,-1,-1,-1,-1,-1,-1,-1,-1,-1,-1,-1,-1,-1],"loss_changes":[8.981329E4,1.8517766E4,1.5869492E4,2.1601367E3,3.7567666E3,1.6675449E3,2.679746E3,2.1901562E2,3.645918E2,1.302237E3,1.6048682E2,6.9921875E0,4.4770312E2,2.4421094E2,4.2704492E2,0E0,1.2970703E1,0E0,1.0524805E2,3.6507324E1,1.1353049E2,6.491327E1,0E0,0E0,0E0,0E0,0E0,0E0,0E0,0E0,0E0,0E0,0E0,0E0,0E0,0E0,0E0,0E0,0E0,0E0,0E0],"parents":[2147483647,0,0,1,1,2,2,3,3,4,4,5,5,6,6,7,7,8,8,9,9,10,10,11,11,12,12,13,13,14,14,16,16,18,18,19,19,20,20,21,21],"right_children":[2,4,6,8,10,12,14,16,18,20,22,24,26,28,30,-1,32,-1,34,36,38,40,-1,-1,-1,-1,-1,-1,-1,-1,-1,-1,-1,-1,-1,-1,-1,-1,-1,-1,-1],"split_conditions":[8E1,4.8E1,1.1E2,2.8E1,6.2E1,8E1,1.3E2,2E1,3.4E1,5.5E1,6.5E1,7.5E1,8.5E1,1.1E2,1.5E2,-1.0835725E0,2.5E1,-6.273019E-1,3.8E1,4.3E1,6E1,7E1,2.7693528E-1,4.4036666E-1,5.100616E-1,6.924705E-1,9.4663715E-1,1.236771E0,1.5786675E0,1.996416E0,2.9156997E0,-8.763121E-1,-7.6839375E-1,-5.1249516E-1,-3.9012793E-1,-3.306768E-1,-2.6990497E-1,-1.5339594E-1,-5.7958663E-2,7.263323E-2,1.7210218E-1],"split_indices":[7,7,7,6,7,6,6,6,6,7,6,6,6,6,6,0,6,0,6,6,7,7,0,0,0,0,0,0,0,0,0,0,0,0,0,0,0,0,0,0,0],"split_type":[0,0,0,0,0,0,0,0,0,0,0,0,0,0,0,0,0,0,0,0,0,0,0,0,0,0,0,0,0,0,0,0,0,0,0,0,0,0,0,0,0],"sum_hessian":[3.268E3,2.48E3,7.88E2,9.25E2,1.555E3,5.77E2,2.11E2,3.27E2,5.98E2,1.147E3,4.08E2,2.59E2,3.18E2,1.59E2,5.2E1,4.6E1,2.81E2,2.51E2,3.47E2,4.94E2,6.53E2,2.92E2,1.16E2,1.7E2,8.9E1,1.72E2,1.46E2,6.4E1,9.5E1,3.7E1,1.5E1,1.12E2,1.69E2,2.04E2,1.43E2,2.23E2,2.71E2,1.68E2,4.85E2,1.04E2,1.88E2],"tree_param":{"num_deleted":"0","num_feature":"8","num_nodes":"41","size_leaf_vector":"1"}},{"base_weights":[1.7452566E-2,-2.6997716E0,8.229263E0,-5.827139E0,-7.978591E-1,5.8015757E0,1.5084163E1,-7.2479253E0,-4.4539075E0,-1.7672441E0,1.1142256E0,4.0856752E0,7.3110247E0,1.2361232E1,1.9422483E1,-8.5818E0,-6.5703793E0,-4.8618207E0,-3.5106605E-1,-2.6393588E0,-8.601289E-1,2.9383552E-1,1.8870698E0,2.7403092E0,4.1993237E0,6.23624E-1,8.526172E-1,1.1149968E0,1.332313E0,1.7400341E0,2.6423535E0,-1.023959E0,-8.026701E-1,-6.9870657E-1,-5.998146E-1,-5.223059E-1,-4.6118745E-1,-2.981498E-1,-2.3697038E-1,-9.220692E-2,1.06732205E-1,-2.2011367E-3,8.040259E-2,1.6017692E-1,2.3807473E-1,9.295222E-2,2.857355E-1,3.9658728E-1,4.5962206E-1],"categories":[],"categories_nodes":[],"categories_segments":[],"categories_sizes":[],"default_left":[0,0,0,0,0,0,0,0,0,0,0,0,0,0,0,0,0,0,0,0,0,0,0,0,0,0,0,0,0,0,0,0,0,0,0,0,0,0,0,0,0,0,0,0,0,0,0,0,0],"id":14,"left_children":[1,3,5,7,9,11,13,15,17,19,21,23,25,27,29,31,33,35,-1,37,39,41,43,45,47,-1,-1,-1,-1,-1,-1,-1,-1,-1,-1,-1,-1,-1,-1,-1,-1,-1,-1,-1,-1,-1,-1,-1,-1],"loss_changes":[7.296449E4,1.4609537E4,1.3442074E4,1.7802617E3,2.8360413E3,1.5293477E3,2.2642578E3,3.5482617E2,1.6569434E2,8.0070483E2,3.259729E2,3.1915527E1,3.6344922E2,6.408203E0,6.7279297E2,5.584668E1,3.1052734E1,5.6171875E0,0E0,4.0632812E1,6.0558136E1,4.0464348E1,3.3510986E1,2.6426544E0,5.862793E0,0E0,0E0,0E0,0E0,0E0,0E0,0E0,0E0,0E0,0E0,0E0,0E0,0E0,0E0,0E0,0E0,0E0,0E0,0E0,0E0,0E0,0E0,0E0,0E0],"parents":[2147483647,0,0,1,1,2,2,3,3,4,4,5,5,6,6,7,7,8,8,9,9,10,10,11,11,12,12,13,13,14,14,15,15,16,16,17,17,19,19,20,20,21,21,22,22,23,23,24,24],"right_children":[2,4,6,8,10,12,14,16,18,20,22,24,26,28,30,32,34,36,-1,38,40,42,44,46,48,-1,-1,-1,-1,-1,-1,-1,-1,-1,-1,-1,-1,-1,-1,-1,-1,-1,-1,-1,-1,-1,-1,-1,-1],"split_conditions":[7.5E1,5E1,1.1E2,3.6E1,5.5E1,8E1,1.2E2,2.2E1,3.8E1,4.8E1,7E1,8E1,8.5E1,1.1E2,1.5E2,1.8E1,3.2E1,3.5E1,-3.5106605E-1,4.3E1,7E1,6.5E1,6.5E1,2E0,7.5E1,6.23624E-1,8.526172E-1,1.1149968E0,1.332313E0,1.7400341E0,2.6423535E0,-1.023959E0,-8.026701E-1,-6.9870657E-1,-5.998146E-1,-5.223059E-1,-4.6118745E-1,-2.981498E-1,-2.3697038E-1,-9.220692E-2,1.06732205E-1,-2.2011367E-3,8.040259E-2,1.6017692E-1,2.3807473E-1,9.295222E-2,2.857355E-1,3.9658728E-1,4.5962206E-1],"split_indices":[7,7,7,7,6,6,6,6,6,6,7,7,6,6,6,6,7,6,0,6,7,7,6,2,6,0,0,0,0,0,0,0,0,0,0,0,0,0,0,0,0,0,0,0,0,0,0,0,0],"split_type":[0,0,0,0,0,0,0,0,0,0,0,0,0,0,0,0,0,0,0,0,0,0,0,0,0,0,0,0,0,0,0,0,0,0,0,0,0,0,0,0,0,0,0,0,0,0,0,0,0],"sum_hessian":[3.268E3,2.456E3,8.12E2,9.28E2,1.528E3,6.01E2,2.11E2,4.54E2,4.74E2,1.014E3,5.14E2,2.83E2,3.18E2,1.32E2,7.9E1,1.49E2,3.05E2,3.28E2,1.46E2,5.16E2,4.98E2,2.5E2,2.64E2,2.4E1,2.59E2,1.72E2,1.46E2,6.4E1,6.8E1,6.4E1,1.5E1,3.3E1,1.16E2,1.7E2,1.35E2,1.26E2,2.02E2,2.23E2,2.93E2,4.83E2,1.5E1,1.55E2,9.5E1,1.7E2,9.4E1,2E0,2.2E1,1.7E2,8.9E1],"tree_param":{"num_deleted":"0","num_feature":"8","num_nodes":"49","size_leaf_vector":"1"}},{"base_weights":[1.7247902E-2,-2.4056654E0,7.4979715E0,-5.249225E0,-6.909621E-1,5.4657497E0,1.4177102E1,-6.530001E0,-4.011326E0,-1.5910339E0,1.0405984E0,4.439444E0,7.9213257E0,1.256576E1,2.0326408E1,-7.7357984E0,-5.917584E0,-4.405931E0,-3.2069096E-1,-2.376459E0,-7.740886E-1,2.6476356E-1,1.7373393E0,3.6928368E0,5.5424225E-1,7.471315E-1,9.142464E-1,1.1379901E0,1.4521388E0,1.6769812E0,2.394633E0,-9.2457485E-1,-7.2308916E-1,-6.292444E-1,-5.402741E-1,-4.7095633E-1,-4.190711E-1,-2.68468E-1,-2.1335407E-1,-8.300546E-2,9.6726134E-2,1.7614618E-3,8.0263704E-2,1.4953817E-1,2.1664917E-1,3.4193465E-1,4.1256204E-1],"categories":[],"categories_nodes":[],"categories_segments":[],"categories_sizes":[],"default_left":[0,0,0,0,0,0,0,0,0,0,0,0,0,0,0,0,0,0,0,0,0,0,0,0,0,0,0,0,0,0,0,0,0,0,0,0,0,0,0,0,0,0,0,0,0,0,0],"id":15,"left_children":[1,3,5,7,9,11,13,15,17,19,21,23,25,27,29,31,33,35,-1,37,39,41,43,45,-1,-1,-1,-1,-1,-1,-1,-1,-1,-1,-1,-1,-1,-1,-1,-1,-1,-1,-1,-1,-1,-1,-1],"loss_changes":[5.9269137E4,1.2039751E4,1.0781293E4,1.446709E3,2.4049072E3,1.5147383E3,1.5875898E3,2.9021875E2,1.3664844E2,6.494346E2,2.8495343E2,3.3857422E2,3.0608398E1,1.8261328E2,7.478516E1,4.7501953E1,2.5058594E1,9.1308594E-1,0E0,3.2980957E1,4.9433563E1,3.3352512E1,2.5626831E1,1.7022217E1,0E0,0E0,0E0,0E0,0E0,0E0,0E0,0E0,0E0,0E0,0E0,0E0,0E0,0E0,0E0,0E0,0E0,0E0,0E0,0E0,0E0,0E0,0E0],"parents":[2147483647,0,0,1,1,2,2,3,3,4,4,5,5,6,6,7,7,8,8,9,9,10,10,11,11,12,12,13,13,14,14,15,15,16,16,17,17,19,19,20,20,21,21,22,22,23,23],"right_children":[2,4,6,8,10,12,14,16,18,20,22,24,26,28,30,32,34,36,-1,38,40,42,44,46,-1,-1,-1,-1,-1,-1,-1,-1,-1,-1,-1,-1,-1,-1,-1,-1,-1,-1,-1,-1,-1,-1,-1],"split_conditions":[7E1,5E1,1.2E2,3.6E1,5.5E1,1E2,1.5E2,2.2E1,4.5E1,4.8E1,7E1,9E1,9.5E1,1.3E2,1.5E2,1.8E1,3.2E1,3.4E1,-3.2069096E-1,4.3E1,7E1,5.8E1,6.5E1,7.5E1,5.5424225E-1,7.471315E-1,9.142464E-1,1.1379901E0,1.4521388E0,1.6769812E0,2.394633E0,-9.2457485E-1,-7.2308916E-1,-6.292444E-1,-5.402741E-1,-4.7095633E-1,-4.190711E-1,-2.68468E-1,-2.1335407E-1,-8.300546E-2,9.6726134E-2,1.7614618E-3,8.0263704E-2,1.4953817E-1,2.1664917E-1,3.4193465E-1,4.1256204E-1],"split_indices":[6,7,7,7,6,7,7,6,7,6,7,7,6,7,6,6,7,6,0,6,7,6,6,6,0,0,0,0,0,0,0,0,0,0,0,0,0,0,0,0,0,0,0,0,0,0,0],"split_type":[0,0,0,0,0,0,0,0,0,0,0,0,0,0,0,0,0,0,0,0,0,0,0,0,0,0,0,0,0,0,0,0,0,0,0,0,0,0,0,0,0,0,0,0,0,0,0],"sum_hessian":[3.268E3,2.469E3,7.99E2,9.28E2,1.541E3,6.14E2,1.85E2,4.54E2,4.74E2,1.014E3,5.27E2,4.35E2,1.79E2,1.49E2,3.6E1,1.49E2,3.05E2,3.15E2,1.59E2,5.16E2,4.98E2,2.5E2,2.77E2,2.62E2,1.73E2,1.36E2,4.3E1,9.7E1,5.2E1,2.1E1,1.5E1,3.3E1,1.16E2,1.7E2,1.35E2,1.22E2,1.93E2,2.23E2,2.93E2,4.83E2,1.5E1,1.72E2,7.8E1,1.8E2,9.7E1,1.66E2,9.6E1],"tree_param":{"num_deleted":"0","num_feature":"8","num_nodes":"47","size_leaf_vector":"1"}},{"base_weights":[1.7230492E-2,-2.1473699E0,6.8237658E0,-4.728638E0,-6.0188013E-1,4.9735813E0,1.2795206E1,-5.8831916E0,-3.612743E0,-1.4323932E0,9.631897E-1,4.0450044E0,7.1384234E0,1.17725525E1,2.1164181E0,-7.042918E0,-5.3561087E0,-3.9484682E0,-2.836781E-1,-2.1778984E0,-7.296815E-1,2.3861295E-1,1.5891606E0,3.375515E0,4.9913627E-1,6.729638E-1,8.248997E-1,1.0380237E0,1.3985541E0,-8.348366E-1,-6.557748E-1,-5.674492E-1,-4.854477E-1,-4.244878E-1,-3.74847E-1,-2.4092042E-1,-1.9787906E-1,-1.1809444E-1,-5.1898707E-2,-2.5056803E-3,6.5748096E-2,1.2922226E-1,2.0146404E-1,3.141348E-1,3.7173143E-1],"categories":[],"categories_nodes":[],"categories_segments":[],"categories_sizes":[],"default_left":[0,0,0,0,0,0,0,0,0,0,0,0,0,0,0,0,0,0,0,0,0,0,0,0,0,0,0,0,0,0,0,0,0,0,0,0,0,0,0,0,0,0,0,0,0],"id":16,"left_children":[1,3,5,7,9,11,13,15,17,19,21,23,25,27,-1,29,31,33,-1,35,37,39,41,43,-1,-1,-1,-1,-1,-1,-1,-1,-1,-1,-1,-1,-1,-1,-1,-1,-1,-1,-1,-1,-1],"loss_changes":[4.8178234E4,9.894668E3,8.653441E3,1.1756309E3,2.0199861E3,1.1852979E3,1.3427344E3,2.4040723E2,1.12541504E2,5.301443E2,2.4409174E2,2.5242139E2,2.6205078E1,3.7246484E2,0E0,3.3291016E1,2.3082031E1,3.5917969E0,0E0,1.7891602E1,4.9208282E1,2.7737625E1,3.390924E1,8.4921875E0,0E0,0E0,0E0,0E0,0E0,0E0,0E0,0E0,0E0,0E0,0E0,0E0,0E0,0E0,0E0,0E0,0E0,0E0,0E0,0E0,0E0],"parents":[2147483647,0,0,1,1,2,2,3,3,4,4,5,5,6,6,7,7,8,8,9,9,10,10,11,11,12,12,13,13,15,15,16,16,17,17,19,19,20,20,21,21,22,22,23,23],"right_children":[2,4,6,8,10,12,14,16,18,20,22,24,26,28,-1,30,32,34,-1,36,38,40,42,44,-1,-1,-1,-1,-1,-1,-1,-1,-1,-1,-1,-1,-1,-1,-1,-1,-1,-1,-1,-1,-1],"split_conditions":[8E1,5E1,1.2E2,3.6E1,5.5E1,1E2,1.6E2,3E1,3.8E1,5.5E1,7E1,9E1,9.5E1,1.2E2,2.1164181E0,1.8E1,2.8E1,3.4E1,-2.836781E-1,4.3E1,5.8E1,6.4E1,6.5E1,7.5E1,4.9913627E-1,6.729638E-1,8.248997E-1,1.0380237E0,1.3985541E0,-8.348366E-1,-6.557748E-1,-5.674492E-1,-4.854477E-1,-4.244878E-1,-3.74847E-1,-2.4092042E-1,-1.9787906E-1,-1.1809444E-1,-5.1898707E-2,-2.5056803E-3,6.5748096E-2,1.2922226E-1,2.0146404E-1,3.141348E-1,3.7173143E-1],"split_indices":[7,7,7,7,6,7,7,7,6,7,7,7,6,6,0,6,6,6,0,6,7,7,6,6,0,0,0,0,0,0,0,0,0,0,0,0,0,0,0,0,0,0,0,0,0],"split_type":[0,0,0,0,0,0,0,0,0,0,0,0,0,0,0,0,0,0,0,0,0,0,0,0,0,0,0,0,0,0,0,0,0,0,0,0,0,0,0,0,0,0,0,0,0],"sum_hessian":[3.268E3,2.48E3,7.88E2,9.28E2,1.552E3,6.03E2,1.85E2,4.54E2,4.74E2,1.014E3,5.38E2,4.24E2,1.79E2,1.67E2,1.8E1,1.38E2,3.16E2,3.28E2,1.46E2,4.91E2,5.23E2,2.5E2,2.88E2,2.51E2,1.73E2,1.36E2,4.3E1,1.06E2,6.1E1,3.3E1,1.05E2,1.87E2,1.29E2,1.24E2,2.04E2,2.22E2,2.69E2,1.65E2,3.58E2,1.54E2,9.6E1,1.72E2,1.16E2,1.55E2,9.6E1],"tree_param":{"num_deleted":"0","num_feature":"8","num_nodes":"45","size_leaf_vector":"1"}},{"base_weights":[1.6545944E-2,-1.973383E0,6.0303698E0,-4.2656975E0,-5.8653134E-1,4.24062E0,1.1084138E1,-5.658708E0,-3.5136974E0,-1.7402544E0,2.8637102E-1,2.9837124E0,5.346329E0,9.841852E0,1.6693819E1,-7.20182E-1,-5.369838E0,-3.830791E0,-2.6021406E-1,-1.9636705E0,-1.0635604E-1,-3.6235818E-1,1.1211574E0,1.99597E0,3.0672116E0,4.543213E-1,6.255123E-1,8.931643E0,1.1785704E0,1.3703549E0,1.9762077E0,-5.782647E-1,-5.07004E-1,-4.3769667E-1,-3.566603E-1,-2.1729748E-1,-1.784083E-1,-5.1951826E-2,-2.0529258E-3,4.907305E-2,1.3460058E-1,6.817157E-2,2.0806132E-1,2.8935272E-1,3.3631325E-1,8.0941486E-1,9.690067E-1],"categories":[],"categories_nodes":[],"categories_segments":[],"categories_sizes":[],"default_left":[0,0,0,0,0,0,0,0,0,0,0,0,0,0,0,0,0,0,0,0,0,0,0,0,0,0,0,0,0,0,0,0,0,0,0,0,0,0,0,0,0,0,0,0,0,0,0],"id":17,"left_children":[1,3,5,7,9,11,13,15,17,19,21,23,25,27,29,-1,31,33,-1,35,-1,37,39,41,43,-1,-1,45,-1,-1,-1,-1,-1,-1,-1,-1,-1,-1,-1,-1,-1,-1,-1,-1,-1,-1,-1],"loss_changes":[3.913229E4,7.808547E3,7.3065664E3,9.501426E2,1.5433567E3,8.206924E2,1.3130938E3,1.0530762E2,1.646167E2,9.769324E1,4.7317966E2,1.7301025E1,2.0440918E2,2.0613281E2,6.866211E1,0E0,4.8393555E0,4.874414E1,0E0,1.4729492E1,0E0,2.6420494E1,5.348813E1,1.3626785E0,3.63208E0,0E0,0E0,3.3007812E-1,0E0,0E0,0E0,0E0,0E0,0E0,0E0,0E0,0E0,0E0,0E0,0E0,0E0,0E0,0E0,0E0,0E0,0E0,0E0],"parents":[2147483647,0,0,1,1,2,2,3,3,4,4,5,5,6,6,7,7,8,8,9,9,10,10,11,11,12,12,13,13,14,14,16,16,17,17,19,19,21,21,22,22,23,23,24,24,27,27],"right_children":[2,4,6,8,10,12,14,16,18,20,22,24,26,28,30,-1,32,34,-1,36,-1,38,40,42,44,-1,-1,46,-1,-1,-1,-1,-1,-1,-1,-1,-1,-1,-1,-1,-1,-1,-1,-1,-1,-1,-1],"split_conditions":[7.5E1,4.8E1,1.1E2,3.5E1,5.8E1,8E1,1.5E2,2.5E1,4.2E1,5.5E1,6.5E1,8E1,8.5E1,1.3E2,1.5E2,-7.20182E-1,2.5E1,4E1,-2.6021406E-1,4.3E1,-1.0635604E-1,5.5E1,7E1,2E0,7.5E1,4.543213E-1,6.255123E-1,1.1E2,1.1785704E0,1.3703549E0,1.9762077E0,-5.782647E-1,-5.07004E-1,-4.3769667E-1,-3.566603E-1,-2.1729748E-1,-1.784083E-1,-5.1951826E-2,-2.0529258E-3,4.907305E-2,1.3460058E-1,6.817157E-2,2.0806132E-1,2.8935272E-1,3.3631325E-1,8.0941486E-1,9.690067E-1],"split_indices":[7,7,7,7,7,6,7,7,7,7,7,7,6,7,6,0,6,7,0,6,0,6,7,2,6,0,0,6,0,0,0,0,0,0,0,0,0,0,0,0,0,0,0,0,0,0,0],"split_type":[0,0,0,0,0,0,0,0,0,0,0,0,0,0,0,0,0,0,0,0,0,0,0,0,0,0,0,0,0,0,0,0,0,0,0,0,0,0,0,0,0,0,0,0,0,0,0],"sum_hessian":[3.268E3,2.456E3,8.12E2,9.25E2,1.531E3,6.01E2,2.11E2,3.22E2,6.03E2,6.59E2,8.72E2,2.83E2,3.18E2,1.75E2,3.6E1,4.7E1,2.75E2,4.45E2,1.58E2,4.94E2,1.65E2,4.91E2,3.81E2,2.4E1,2.59E2,1.72E2,1.46E2,1.23E2,5.2E1,2.1E1,1.5E1,1.08E2,1.67E2,1.4E2,3.05E2,2.23E2,2.71E2,3.36E2,1.55E2,1.01E2,2.8E2,2E0,2.2E1,1.7E2,8.9E1,6.4E1,5.9E1],"tree_param":{"num_deleted":"0","num_feature":"8","num_nodes":"47","size_leaf_vector":"1"}},{"base_weights":[1.6437277E-2,-1.7583213E0,5.495984E0,-3.8369465E0,-5.048836E-1,3.9966714E0,1.042384E1,-5.083895E0,-3.151172E0,-1.1628674E0,7.609469E-1,3.2424252E0,5.8014197E0,9.571183E0,1.7414496E0,-6.839082E-1,-4.864369E0,-3.7323172E0,-2.7334988E0,-1.7390858E0,-5.635333E-1,1.9769885E-1,1.2667538E0,2.6974888E0,4.047459E-1,5.460445E-1,6.731239E-1,8.43101E-1,1.1384529E0,-5.3172785E-1,-4.5860916E-1,-3.9387703E-1,-3.4657308E-1,-3.0529556E-1,-2.317888E-1,-1.9632724E-1,-1.5623616E-1,-9.46969E-2,-4.022625E-2,6.8893214E-4,6.1304506E-2,1.0700263E-1,1.6171715E-1,1.8315506E-1,2.757412E-1],"categories":[],"categories_nodes":[],"categories_segments":[],"categories_sizes":[],"default_left":[0,0,0,0,0,0,0,0,0,0,0,0,0,0,0,0,0,0,0,0,0,0,0,0,0,0,0,0,0,0,0,0,0,0,0,0,0,0,0,0,0,0,0,0,0],"id":18,"left_children":[1,3,5,7,9,11,13,15,17,19,21,23,25,27,-1,-1,29,31,33,35,37,39,41,43,-1,-1,-1,-1,-1,-1,-1,-1,-1,-1,-1,-1,-1,-1,-1,-1,-1,-1,-1,-1,-1],"loss_changes":[3.1800273E4,6.433468E3,5.8690547E3,7.783906E2,1.2852106E3,8.183428E2,9.4199805E2,9.311426E1,1.3592041E2,3.495475E2,1.5017401E2,1.8035205E2,2.0312988E1,2.5136133E2,0E0,0E0,1.2794434E1,5.3710938E-2,3.9924072E1,1.7415771E1,3.0475723E1,1.988803E1,1.7434021E1,8.59668E0,0E0,0E0,0E0,0E0,0E0,0E0,0E0,0E0,0E0,0E0,0E0,0E0,0E0,0E0,0E0,0E0,0E0,0E0,0E0,0E0,0E0],"parents":[2147483647,0,0,1,1,2,2,3,3,4,4,5,5,6,6,7,7,8,8,9,9,10,10,11,11,12,12,13,13,16,16,17,17,18,18,19,19,20,20,21,21,22,22,23,23],"right_children":[2,4,6,8,10,12,14,16,18,20,22,24,26,28,-1,-1,30,32,34,36,38,40,42,44,-1,-1,-1,-1,-1,-1,-1,-1,-1,-1,-1,-1,-1,-1,-1,-1,-1,-1,-1,-1,-1],"split_conditions":[7E1,5E1,1.2E2,2.8E1,5.5E1,1E2,1.6E2,1.8E1,3.2E1,4.8E1,7E1,9E1,9.5E1,1.2E2,1.7414496E0,-6.839082E-1,3E1,4E1,4.5E1,4.3E1,5.8E1,5.8E1,6.5E1,8E1,4.047459E-1,5.460445E-1,6.731239E-1,8.43101E-1,1.1384529E0,-5.3172785E-1,-4.5860916E-1,-3.9387703E-1,-3.4657308E-1,-3.0529556E-1,-2.317888E-1,-1.9632724E-1,-1.5623616E-1,-9.46969E-2,-4.022625E-2,6.8893214E-4,6.1304506E-2,1.0700263E-1,1.6171715E-1,1.8315506E-1,2.757412E-1],"split_indices":[6,7,7,6,6,7,7,6,6,6,7,7,6,6,0,0,7,7,7,6,7,6,6,7,0,0,0,0,0,0,0,0,0,0,0,0,0,0,0,0,0,0,0,0,0],"split_type":[0,0,0,0,0,0,0,0,0,0,0,0,0,0,0,0,0,0,0,0,0,0,0,0,0,0,0,0,0,0,0,0,0,0,0,0,0,0,0,0,0,0,0,0,0],"sum_hessian":[3.268E3,2.469E3,7.99E2,9.28E2,1.541E3,6.14E2,1.85E2,3.27E2,6.01E2,1.014E3,5.27E2,4.35E2,1.79E2,1.67E2,1.8E1,3.3E1,2.94E2,2.48E2,3.53E2,5.16E2,4.98E2,2.5E2,2.77E2,2.62E2,1.73E2,1.36E2,4.3E1,1.06E2,6.1E1,1.05E2,1.89E2,1.32E2,1.16E2,1.96E2,1.57E2,2.23E2,2.93E2,1.46E2,3.52E2,1.72E2,7.8E1,1.8E2,9.7E1,1.9E1,2.43E2],"tree_param":{"num_deleted":"0","num_feature":"8","num_nodes":"45","size_leaf_vector":"1"}},{"base_weights":[1.56181585E-2,-1.60123E0,4.901941E0,-3.6953795E0,-6.0101616E-1,3.5614717E0,9.401471E0,-4.610154E0,-3.0777824E0,-1.517762E0,2.3135921E-1,2.9033623E0,5.275555E0,8.275077E0,1.3713842E1,-6.1752886E-1,-4.4072604E0,-3.3728325E0,-2.7147883E-1,-1.6905625E0,-8.559329E-2,-2.985171E-1,9.1321206E-1,2.3677428E0,3.6275072E0,4.96493E-1,6.073411E-1,7.4943507E-1,9.562551E-1,1.236637E0,1.9864391E0,-4.7707352E-1,-4.1370445E-1,-3.5697573E-1,-3.111159E-1,-1.8691818E-1,-1.4505659E-1,-4.2658072E-2,-1.9953265E-3,4.0136572E-2,1.09575704E-1,1.640261E-1,2.433383E-1,2.6896694E-1,3.6974832E-1],"categories":[],"categories_nodes":[],"categories_segments":[],"categories_sizes":[],"default_left":[0,0,0,0,0,0,0,0,0,0,0,0,0,0,0,0,0,0,0,0,0,0,0,0,0,0,0,0,0,0,0,0,0,0,0,0,0,0,0,0,0,0,0,0,0],"id":19,"left_children":[1,3,5,7,9,11,13,15,17,19,21,23,25,27,29,-1,31,33,-1,35,-1,37,39,41,43,-1,-1,-1,-1,-1,-1,-1,-1,-1,-1,-1,-1,-1,-1,-1,-1,-1,-1,-1,-1],"loss_changes":[2.5834395E4,5.144204E3,4.8701113E3,4.343916E2,1.2701107E3,6.9310156E2,7.9E2,7.37666E1,4.1931152E1,8.912964E1,3.1568546E2,1.6827808E2,1.2721191E1,7.911035E1,6.099463E1,0E0,8.254883E0,2.2402344E0,0E0,2.416687E1,0E0,1.7543045E1,3.525238E1,8.662842E0,2.6550293E0,0E0,0E0,0E0,0E0,0E0,0E0,0E0,0E0,0E0,0E0,0E0,0E0,0E0,0E0,0E0,0E0,0E0,0E0,0E0,0E0],"parents":[2147483647,0,0,1,1,2,2,3,3,4,4,5,5,6,6,7,7,8,8,9,9,10,10,11,11,12,12,13,13,14,14,16,16,17,17,19,19,21,21,22,22,23,23,24,24],"right_children":[2,4,6,8,10,12,14,16,18,20,22,24,26,28,30,-1,32,34,-1,36,-1,38,40,42,44,-1,-1,-1,-1,-1,-1,-1,-1,-1,-1,-1,-1,-1,-1,-1,-1,-1,-1,-1,-1],"split_conditions":[7.5E1,4E1,1.2E2,3.2E1,5.8E1,8.5E1,1.5E2,1.8E1,3.2E1,5.5E1,6.5E1,8.5E1,9.5E1,1.3E2,1.7E2,-6.1752886E-1,2.2E1,4E1,-2.7147883E-1,4.3E1,-8.559329E-2,5.5E1,7E1,8E1,7.5E1,4.96493E-1,6.073411E-1,7.4943507E-1,9.562551E-1,1.236637E0,1.9864391E0,-4.7707352E-1,-4.1370445E-1,-3.5697573E-1,-3.111159E-1,-1.8691818E-1,-1.4505659E-1,-4.2658072E-2,-1.9953265E-3,4.0136572E-2,1.09575704E-1,1.640261E-1,2.433383E-1,2.6896694E-1,3.6974832E-1],"split_indices":[7,6,7,7,7,6,7,6,6,7,7,7,6,7,7,0,6,7,0,6,0,6,7,7,6,0,0,0,0,0,0,0,0,0,0,0,0,0,0,0,0,0,0,0,0],"split_type":[0,0,0,0,0,0,0,0,0,0,0,0,0,0,0,0,0,0,0,0,0,0,0,0,0,0,0,0,0,0,0,0,0,0,0,0,0,0,0,0,0,0,0,0,0],"sum_hessian":[3.268E3,2.456E3,8.12E2,7.93E2,1.663E3,6.27E2,1.85E2,3.17E2,4.76E2,7.91E2,8.72E2,4.55E2,1.72E2,1.49E2,3.6E1,3.3E1,2.84E2,2.58E2,2.18E2,6.26E2,1.65E2,4.91E2,3.81E2,2.64E2,1.91E2,1.29E2,4.3E1,9.7E1,5.2E1,3.2E1,4E0,1.14E2,1.7E2,1.4E2,1.18E2,3.55E2,2.71E2,3.36E2,1.55E2,1.01E2,2.8E2,2.4E1,2.4E2,1.6E1,1.75E2],"tree_param":{"num_deleted":"0","num_feature":"8","num_nodes":"45","size_leaf_vector":"1"}},{"base_weights":[1.5377599E-2,-1.4422301E0,4.4204535E0,-3.1161542E0,-4.2423287E-1,3.0989823E0,8.1520815E0,-4.1417193E0,-2.5652914E0,-1.2609031E0,2.1097007E-1,2.155847E0,3.8855462E0,6.963626E0,1.1586061E1,-5.575923E-1,-3.9592898E0,-3.024049E0,-2.2174876E0,-1.4279983E0,-7.6698735E-2,-2.2354059E-1,8.88953E-1,1.9691486E0,2.480073E-1,3.3014996E0,4.5782456E-1,5.861298E-1,7.637456E-1,9.8573345E-1,1.4967657E0,-4.3227753E-1,-3.729621E-1,-3.201892E-1,-2.7980953E-1,-2.4614735E-1,-1.8654701E-1,-1.5715165E-1,-1.304174E-1,-2.6227597E-2,7.792622E-2,7.150755E-2,1.3298468E-1,1.4827976E-1,2.0344667E-1,2.4367137E-1,3.364964E-1],"categories":[],"categories_nodes":[],"categories_segments":[],"categories_sizes":[],"default_left":[0,0,0,0,0,0,0,0,0,0,0,0,0,0,0,0,0,0,0,0,0,0,0,0,0,0,0,0,0,0,0,0,0,0,0,0,0,0,0,0,0,0,0,0,0,0,0],"id":20,"left_children":[1,3,5,7,9,11,13,15,17,19,21,23,25,27,29,-1,31,33,35,37,-1,39,41,43,-1,45,-1,-1,-1,-1,-1,-1,-1,-1,-1,-1,-1,-1,-1,-1,-1,-1,-1,-1,-1,-1,-1],"loss_changes":[2.0996207E4,4.1855293E3,3.983833E3,5.1420996E2,8.128613E2,4.3820898E2,7.8451953E2,6.2433105E1,9.014575E1,5.3375244E1,2.564927E2,1.1823486E1,1.1717871E2,7.407959E1,1.6228906E2,0E0,8.087402E0,1.4484863E0,2.5382812E1,6.6937866E0,0E0,2.083052E1,2.5113953E1,2.701477E0,0E0,1.7344971E0,0E0,0E0,0E0,0E0,0E0,0E0,0E0,0E0,0E0,0E0,0E0,0E0,0E0,0E0,0E0,0E0,0E0,0E0,0E0,0E0,0E0],"parents":[2147483647,0,0,1,1,2,2,3,3,4,4,5,5,6,6,7,7,8,8,9,9,10,10,11,11,12,12,13,13,14,14,16,16,17,17,18,18,19,19,21,21,22,22,23,23,25,25],"right_children":[2,4,6,8,10,12,14,16,18,20,22,24,26,28,30,-1,32,34,36,38,-1,40,42,44,-1,46,-1,-1,-1,-1,-1,-1,-1,-1,-1,-1,-1,-1,-1,-1,-1,-1,-1,-1,-1,-1,-1],"split_conditions":[7.5E1,5E1,1.1E2,3.5E1,6E1,9E1,1.3E2,1.8E1,3.5E1,5.5E1,5.8E1,7.5E1,8.5E1,1.1E2,1.5E2,-5.575923E-1,3E1,3.8E1,3.8E1,4.3E1,-7.6698735E-2,7E1,6.5E1,8E1,2.480073E-1,7.5E1,4.5782456E-1,5.861298E-1,7.637456E-1,9.8573345E-1,1.4967657E0,-4.3227753E-1,-3.729621E-1,-3.201892E-1,-2.7980953E-1,-2.4614735E-1,-1.8654701E-1,-1.5715165E-1,-1.304174E-1,-2.6227597E-2,7.792622E-2,7.150755E-2,1.3298468E-1,1.4827976E-1,2.0344667E-1,2.4367137E-1,3.364964E-1],"split_indices":[7,7,7,7,7,7,6,6,6,7,6,6,6,6,6,0,7,7,6,6,0,7,6,7,0,6,0,0,0,0,0,0,0,0,0,0,0,0,0,0,0,0,0,0,0,0,0],"split_type":[0,0,0,0,0,0,0,0,0,0,0,0,0,0,0,0,0,0,0,0,0,0,0,0,0,0,0,0,0,0,0,0,0,0,0,0,0,0,0,0,0,0,0,0,0,0,0],"sum_hessian":[3.268E3,2.456E3,8.12E2,9.28E2,1.528E3,6.01E2,2.11E2,3.22E2,6.06E2,6.59E2,8.69E2,2.75E2,3.26E2,1.59E2,5.2E1,3.3E1,2.89E2,2.58E2,3.48E2,4.91E2,1.68E2,5.3E2,3.39E2,1.79E2,9.6E1,1.8E2,1.46E2,6.4E1,9.5E1,3.7E1,1.5E1,1.05E2,1.84E2,1.37E2,1.21E2,2.02E2,1.46E2,2.22E2,2.69E2,5.11E2,1.9E1,2.45E2,9.4E1,2.4E1,1.55E2,1.5E1,1.65E2],"tree_param":{"num_deleted":"0","num_feature":"8","num_nodes":"47","size_leaf_vector":"1"}},{"base_weights":[1.4746803E-2,-1.2852149E0,4.0283604E0,-2.8071175E0,-3.6748952E-1,2.9230983E0,7.6611977E0,-3.721953E0,-2.3040059E0,-8.5250276E-1,5.65571E-1,2.3649442E0,4.258832E0,6.9976773E0,1.3124893E0,-5.1123405E-1,-3.5648255E0,-2.7244648E-1,-2.0017505E0,-1.2692759E0,-4.1898736E-1,1.5996519E-1,9.297491E-1,1.951062E0,2.9159358E0,4.0017587E-1,4.962473E-1,6.1424303E-1,8.360802E-1,-3.87782E-1,-3.332033E-1,-2.2361965E-1,-1.6967656E-1,-1.4268892E-1,-1.1448723E-1,-4.538229E-2,6.609745E-2,4.7822032E-4,4.0628888E-2,7.70232E-2,1.2148803E-1,1.8066016E-1,2.204273E-1,2.2095561E-1,2.9697376E-1],"categories":[],"categories_nodes":[],"categories_segments":[],"categories_sizes":[],"default_left":[0,0,0,0,0,0,0,0,0,0,0,0,0,0,0,0,0,0,0,0,0,0,0,0,0,0,0,0,0,0,0,0,0,0,0,0,0,0,0,0,0,0,0,0,0],"id":21,"left_children":[1,3,5,7,9,11,13,15,17,19,21,23,25,27,-1,-1,29,-1,31,33,35,37,39,41,43,-1,-1,-1,-1,-1,-1,-1,-1,-1,-1,-1,-1,-1,-1,-1,-1,-1,-1,-1,-1],"loss_changes":[1.7061328E4,3.4487888E3,3.189795E3,4.1901025E2,6.983092E2,4.4843848E2,5.8245703E2,5.3433105E1,7.105176E1,1.828559E2,7.78436E1,9.373877E1,1.2700928E1,1.445E2,0E0,0E0,8.791992E0,0E0,2.1517578E1,8.503601E0,1.9072868E1,9.59259E0,1.1708618E1,5.2356567E0,4.6899414E-1,0E0,0E0,0E0,0E0,0E0,0E0,0E0,0E0,0E0,0E0,0E0,0E0,0E0,0E0,0E0,0E0,0E0,0E0,0E0,0E0],"parents":[2147483647,0,0,1,1,2,2,3,3,4,4,5,5,6,6,7,7,8,8,9,9,10,10,11,11,12,12,13,13,16,16,18,18,19,19,20,20,21,21,22,22,23,23,24,24],"right_children":[2,4,6,8,10,12,14,16,18,20,22,24,26,28,-1,-1,30,-1,32,34,36,38,40,42,44,-1,-1,-1,-1,-1,-1,-1,-1,-1,-1,-1,-1,-1,-1,-1,-1,-1,-1,-1,-1],"split_conditions":[7E1,5E1,1.2E2,2.8E1,5.5E1,1E2,1.6E2,1.6E1,3.2E1,4.8E1,7E1,8.5E1,9.5E1,1.2E2,1.3124893E0,-5.1123405E-1,2.2E1,-2.7244648E-1,4.5E1,4.3E1,7E1,6.4E1,6.5E1,7.5E1,7.5E1,4.0017587E-1,4.962473E-1,6.1424303E-1,8.360802E-1,-3.87782E-1,-3.332033E-1,-2.2361965E-1,-1.6967656E-1,-1.4268892E-1,-1.1448723E-1,-4.538229E-2,6.609745E-2,4.7822032E-4,4.0628888E-2,7.70232E-2,1.2148803E-1,1.8066016E-1,2.204273E-1,2.2095561E-1,2.9697376E-1],"split_indices":[6,7,7,6,6,7,7,6,6,6,7,7,6,6,0,0,6,0,7,6,7,7,6,6,6,0,0,0,0,0,0,0,0,0,0,0,0,0,0,0,0,0,0,0,0],"split_type":[0,0,0,0,0,0,0,0,0,0,0,0,0,0,0,0,0,0,0,0,0,0,0,0,0,0,0,0,0,0,0,0,0,0,0,0,0,0,0,0,0,0,0,0,0],"sum_hessian":[3.268E3,2.469E3,7.99E2,9.28E2,1.541E3,6.14E2,1.85E2,3.27E2,6.01E2,1.014E3,5.27E2,4.35E2,1.79E2,1.67E2,1.8E1,3E1,2.97E2,2.48E2,3.53E2,5.16E2,4.98E2,2.5E2,2.77E2,2.51E2,1.84E2,1.36E2,4.3E1,1.06E2,6.1E1,1.2E2,1.77E2,1.96E2,1.57E2,2.23E2,2.93E2,4.83E2,1.5E1,1.54E2,9.6E1,1.8E2,9.7E1,1.65E2,8.6E1,1.6E1,1.68E2],"tree_param":{"num_deleted":"0","num_feature":"8","num_nodes":"45","size_leaf_vector":"1"}},{"base_weights":[1.4093053E-2,-1.1469009E0,3.6648052E0,-2.5284486E0,-3.1972456E-1,2.7915077E0,7.4282646E0,-3.1453645E0,-1.919279E0,-7.674851E-1,5.2405405E-1,2.1540158E0,4.0215197E0,6.7786694E0,1.2363762E0,-3.7623627E0,-2.8376632E0,-2.0999541E0,-1.5079997E-1,-1.1428461E0,-3.77046E-1,1.4413273E-1,8.5220695E-1,1.79945E0,2.6551456E0,3.6045024E-1,4.6692E-1,6.0474724E-1,7.835741E-1,-5.7563275E-1,-3.624502E-1,-3.023081E-1,-2.5926694E-1,-2.2579949E-1,-1.9971988E-1,-1.2848374E-1,-1.0307751E-1,-4.085332E-2,5.990083E-2,2.451739E-3,4.0425073E-2,6.660647E-2,1.1201592E-1,1.6578831E-1,2.0085739E-1,2.0011301E-1,2.7042595E-1],"categories":[],"categories_nodes":[],"categories_segments":[],"categories_sizes":[],"default_left":[0,0,0,0,0,0,0,0,0,0,0,0,0,0,0,0,0,0,0,0,0,0,0,0,0,0,0,0,0,0,0,0,0,0,0,0,0,0,0,0,0,0,0,0,0,0,0],"id":22,"left_children":[1,3,5,7,9,11,13,15,17,19,21,23,25,27,-1,29,31,33,-1,35,37,39,41,43,45,-1,-1,-1,-1,-1,-1,-1,-1,-1,-1,-1,-1,-1,-1,-1,-1,-1,-1,-1,-1,-1,-1],"loss_changes":[1.3859711E4,2.8344373E3,2.5724062E3,3.430874E2,5.8714233E2,4.9474414E2,3.9068994E2,7.665527E1,3.1758057E1,1.4832306E2,6.707555E1,7.073767E1,4.2050293E1,5.5413086E1,0E0,2.0369629E1,6.289551E0,7.519531E-1,0E0,6.902649E0,1.5580612E1,7.799729E0,1.3668411E1,4.130432E0,1.7749023E-1,0E0,0E0,0E0,0E0,0E0,0E0,0E0,0E0,0E0,0E0,0E0,0E0,0E0,0E0,0E0,0E0,0E0,0E0,0E0,0E0,0E0,0E0],"parents":[2147483647,0,0,1,1,2,2,3,3,4,4,5,5,6,6,7,7,8,8,9,9,10,10,11,11,12,12,13,13,15,15,16,16,17,17,19,19,20,20,21,21,22,22,23,23,24,24],"right_children":[2,4,6,8,10,12,14,16,18,20,22,24,26,28,-1,30,32,34,-1,36,38,40,42,44,46,-1,-1,-1,-1,-1,-1,-1,-1,-1,-1,-1,-1,-1,-1,-1,-1,-1,-1,-1,-1,-1,-1],"split_conditions":[8E1,5E1,1.1E2,3.8E1,5.5E1,1E2,1.5E2,2.2E1,3.8E1,4.8E1,7E1,9E1,9.5E1,1.4E2,1.2363762E0,2E1,3.2E1,3.2E1,-1.5079997E-1,4.3E1,7E1,5.8E1,6.5E1,7.5E1,7.5E1,3.6045024E-1,4.6692E-1,6.0474724E-1,7.835741E-1,-5.7563275E-1,-3.624502E-1,-3.023081E-1,-2.5926694E-1,-2.2579949E-1,-1.9971988E-1,-1.2848374E-1,-1.0307751E-1,-4.085332E-2,5.990083E-2,2.451739E-3,4.0425073E-2,6.660647E-2,1.1201592E-1,1.6578831E-1,2.0085739E-1,2.0011301E-1,2.7042595E-1],"split_indices":[7,7,6,7,6,7,6,6,6,6,7,7,6,7,0,7,7,6,0,6,7,6,6,6,6,0,0,0,0,0,0,0,0,0,0,0,0,0,0,0,0,0,0,0,0,0,0],"split_type":[0,0,0,0,0,0,0,0,0,0,0,0,0,0,0,0,0,0,0,0,0,0,0,0,0,0,0,0,0,0,0,0,0,0,0,0,0,0,0,0,0,0,0,0,0,0,0],"sum_hessian":[3.268E3,2.48E3,7.88E2,9.28E2,1.552E3,6.41E2,1.47E2,4.59E2,4.69E2,1.014E3,5.38E2,4.24E2,2.17E2,1.32E2,1.5E1,1.49E2,3.1E2,3.23E2,1.46E2,5.16E2,4.98E2,2.5E2,2.88E2,2.51E2,1.73E2,1.36E2,8.1E1,8.2E1,5E1,7E0,1.42E2,1.7E2,1.4E2,1.19E2,2.04E2,2.23E2,2.93E2,4.83E2,1.5E1,1.72E2,7.8E1,1.72E2,1.16E2,1.55E2,9.6E1,1.5E1,1.58E2],"tree_param":{"num_deleted":"0","num_feature":"8","num_nodes":"47","size_leaf_vector":"1"}},{"base_weights":[1.3363381E-2,-1.0427725E0,3.2741663E0,-2.277839E0,-2.9801288E-1,2.4919803E0,6.7031755E0,-2.8340883E0,-1.7285782E0,-9.297482E-1,1.7451636E-1,1.9325664E0,3.6546738E0,6.0520406E0,1.0805511E1,-3.4258697E0,-2.5698283E0,-1.8912729E0,-1.3582267E-1,-1.0450075E0,-5.8869916E-1,-1.0756631E-1,7.4000704E-1,1.601319E0,2.4032047E0,3.2775554E-1,4.2079756E-1,5.291936E-1,6.8003505E-1,8.6740667E-1,1.5038745E0,-5.25265E-1,-3.2892022E-1,-2.726239E-1,-2.3329762E-1,-2.0340772E-1,-1.7984545E-1,-1.1451154E-1,-9.584552E-2,-5.924464E-2,-2.8601456E-2,-2.8254837E-2,1.2988974E-2,6.1499406E-2,9.837576E-2,1.4706449E-1,1.8097854E-1,1.8135257E-1,2.4455641E-1],"categories":[],"categories_nodes":[],"categories_segments":[],"categories_sizes":[],"default_left":[0,0,0,0,0,0,0,0,0,0,0,0,0,0,0,0,0,0,0,0,0,0,0,0,0,0,0,0,0,0,0,0,0,0,0,0,0,0,0,0,0,0,0,0,0,0,0,0,0],"id":23,"left_children":[1,3,5,7,9,11,13,15,17,19,21,23,25,27,29,31,33,35,-1,37,39,41,43,45,47,-1,-1,-1,-1,-1,-1,-1,-1,-1,-1,-1,-1,-1,-1,-1,-1,-1,-1,-1,-1,-1,-1,-1,-1],"loss_changes":[1.1261364E4,2.2712957E3,2.128995E3,2.7893457E2,4.6046994E2,4.1766577E2,3.29938E2,6.3133057E1,2.575061E1,2.5328796E1,1.4093146E2,6.5214355E1,3.0235352E1,3.7956543E1,4.0988037E1,1.7425903E1,5.5686035E0,6.364746E-1,0E0,3.1654053E0,2.223587E-2,2.4551527E1,8.35376E0,4.5028687E0,8.605957E-2,0E0,0E0,0E0,0E0,0E0,0E0,0E0,0E0,0E0,0E0,0E0,0E0,0E0,0E0,0E0,0E0,0E0,0E0,0E0,0E0,0E0,0E0,0E0,0E0],"parents":[2147483647,0,0,1,1,2,2,3,3,4,4,5,5,6,6,7,7,8,8,9,9,10,10,11,11,12,12,13,13,14,14,15,15,16,16,17,17,19,19,20,20,21,21,22,22,23,23,24,24],"right_children":[2,4,6,8,10,12,14,16,18,20,22,24,26,28,30,32,34,36,-1,38,40,42,44,46,48,-1,-1,-1,-1,-1,-1,-1,-1,-1,-1,-1,-1,-1,-1,-1,-1,-1,-1,-1,-1,-1,-1,-1,-1],"split_conditions":[7E1,5E1,1.1E2,3.8E1,6E1,8.5E1,1.6E2,3E1,3.8E1,5.5E1,7E1,9E1,9.5E1,1.2E2,1.7E2,2E1,2.8E1,3.2E1,-1.3582267E-1,4.3E1,2.021E3,5.5E1,6.5E1,7.5E1,7.5E1,3.2775554E-1,4.2079756E-1,5.291936E-1,6.8003505E-1,8.6740667E-1,1.5038745E0,-5.25265E-1,-3.2892022E-1,-2.726239E-1,-2.3329762E-1,-2.0340772E-1,-1.7984545E-1,-1.1451154E-1,-9.584552E-2,-5.924464E-2,-2.8601456E-2,-2.8254837E-2,1.2988974E-2,6.1499406E-2,9.837576E-2,1.4706449E-1,1.8097854E-1,1.8135257E-1,2.4455641E-1],"split_indices":[6,7,6,7,7,6,7,7,6,7,7,7,6,6,7,7,6,6,0,6,0,6,6,6,6,0,0,0,0,0,0,0,0,0,0,0,0,0,0,0,0,0,0,0,0,0,0,0,0],"split_type":[0,0,0,0,0,0,0,0,0,0,0,0,0,0,0,0,0,0,0,0,0,0,0,0,0,0,0,0,0,0,0,0,0,0,0,0,0,0,0,0,0,0,0,0,0,0,0,0,0],"sum_hessian":[3.268E3,2.469E3,7.99E2,9.28E2,1.541E3,6.52E2,1.47E2,4.59E2,4.69E2,6.59E2,8.82E2,4.42E2,2.1E2,1.29E2,1.8E1,1.38E2,3.21E2,3.23E2,1.46E2,4.91E2,1.68E2,5.89E2,2.93E2,2.62E2,1.8E2,1.29E2,8.1E1,6.8E1,6.1E1,1.4E1,4E0,7E0,1.31E2,1.87E2,1.34E2,1.19E2,2.04E2,2.22E2,2.69E2,1.65E2,3E0,3.39E2,2.5E2,1.96E2,9.7E1,1.66E2,9.6E1,1.5E1,1.65E2],"tree_param":{"num_deleted":"0","num_feature":"8","num_nodes":"49","size_leaf_vector":"1"}},{"base_weights":[1.2960294E-2,-9.3097675E-1,2.9811413E0,-2.0520782E0,-2.597377E-1,2.2674096E0,6.0570517E0,-2.741834E0,-1.6903226E0,-6.2231654E-1,4.235225E-1,1.7482108E0,3.2692077E0,5.507809E0,1.0244063E1,-3.856056E-1,-2.61238E0,-1.8467304E0,-1.2444575E-1,-9.278978E-1,-3.044652E-1,1.1695245E-1,6.883168E-1,1.4485608E0,2.129116E-1,2.9322487E-1,3.792308E-1,4.9017563E-1,6.3861346E-1,7.8938997E-1,1.3835645E0,-2.8430527E-1,-2.4581818E-1,-2.1162899E-1,-1.7120819E-1,-1.0433111E-1,-8.368078E-2,-5.4540794E-2,-2.0326676E-2,-1.1523783E-3,3.2104384E-2,5.3870004E-2,9.036621E-2,1.3492009E-1,1.6089313E-1],"categories":[],"categories_nodes":[],"categories_segments":[],"categories_sizes":[],"default_left":[0,0,0,0,0,0,0,0,0,0,0,0,0,0,0,0,0,0,0,0,0,0,0,0,0,0,0,0,0,0,0,0,0,0,0,0,0,0,0,0,0,0,0,0,0],"id":24,"left_children":[1,3,5,7,9,11,13,15,17,19,21,23,25,27,29,-1,31,33,-1,35,37,39,41,43,-1,-1,-1,-1,-1,-1,-1,-1,-1,-1,-1,-1,-1,-1,-1,-1,-1,-1,-1,-1,-1],"loss_changes":[9.161781E3,1.8664866E3,1.718417E3,2.2717212E2,3.849971E2,3.2820947E2,2.8393115E2,3.579492E1,4.0380737E1,9.830386E1,4.3674454E1,4.5424683E1,2.730542E1,3.9494385E1,2.5835693E1,0E0,3.255371E0,1.2746094E1,0E0,4.5621643E0,1.2056271E1,6.585142E0,8.82457E0,1.6694336E0,0E0,0E0,0E0,0E0,0E0,0E0,0E0,0E0,0E0,0E0,0E0,0E0,0E0,0E0,0E0,0E0,0E0,0E0,0E0,0E0,0E0],"parents":[2147483647,0,0,1,1,2,2,3,3,4,4,5,5,6,6,7,7,8,8,9,9,10,10,11,11,12,12,13,13,14,14,16,16,17,17,19,19,20,20,21,21,22,22,23,23],"right_children":[2,4,6,8,10,12,14,16,18,20,22,24,26,28,30,-1,32,34,-1,36,38,40,42,44,-1,-1,-1,-1,-1,-1,-1,-1,-1,-1,-1,-1,-1,-1,-1,-1,-1,-1,-1,-1,-1],"split_conditions":[8E1,5E1,1.1E2,3.2E1,5.5E1,1E2,1.5E2,1.6E1,4.2E1,4.8E1,7E1,8.5E1,9.5E1,1.4E2,1.7E2,-3.856056E-1,3E1,4E1,-1.2444575E-1,4.3E1,5.8E1,6.4E1,6.5E1,7.5E1,2.129116E-1,2.9322487E-1,3.792308E-1,4.9017563E-1,6.3861346E-1,7.8938997E-1,1.3835645E0,-2.8430527E-1,-2.4581818E-1,-2.1162899E-1,-1.7120819E-1,-1.0433111E-1,-8.368078E-2,-5.4540794E-2,-2.0326676E-2,-1.1523783E-3,3.2104384E-2,5.3870004E-2,9.036621E-2,1.3492009E-1,1.6089313E-1],"split_indices":[7,7,6,7,6,7,6,6,7,6,7,7,6,7,7,0,7,7,0,6,7,7,6,6,0,0,0,0,0,0,0,0,0,0,0,0,0,0,0,0,0,0,0,0,0],"split_type":[0,0,0,0,0,0,0,0,0,0,0,0,0,0,0,0,0,0,0,0,0,0,0,0,0,0,0,0,0,0,0,0,0,0,0,0,0,0,0,0,0,0,0,0,0],"sum_hessian":[3.268E3,2.48E3,7.88E2,9.28E2,1.552E3,6.41E2,1.47E2,3.17E2,6.11E2,1.014E3,5.38E2,4.24E2,2.17E2,1.32E2,1.5E1,3E1,2.87E2,4.5E2,1.61E2,5.16E2,4.98E2,2.5E2,2.88E2,2.4E2,1.84E2,1.36E2,8.1E1,8.2E1,5E1,1.1E1,4E0,1.08E2,1.79E2,1.45E2,3.05E2,2.23E2,2.93E2,1.46E2,3.52E2,1.54E2,9.6E1,1.72E2,1.16E2,1.54E2,8.6E1],"tree_param":{"num_deleted":"0","num_feature":"8","num_nodes":"45","size_leaf_vector":"1"}},{"base_weights":[1.25735225E-2,-8.384877E-1,2.688708E0,-1.8484021E0,-2.3381989E-1,2.0425067E0,5.473658E0,-2.4632237E0,-1.5181949E0,-5.6034327E-1,3.814956E-1,1.5837494E0,2.9720833E0,4.9149103E0,9.008583E0,-3.262999E0,-2.3152077E0,-1.8005998E0,-1.3112768E0,-8.354722E-1,-2.7416688E-1,1.0538027E-1,6.1998504E-1,1.317624E0,1.9455166E0,2.668141E-1,3.4176984E-1,4.287346E-1,5.5340564E-1,7.16794E-1,1.2728796E0,-4.4556388E-1,-2.9507038E-1,-2.3378222E-1,-1.5578717E-1,-1.9112754E-1,-1.6589823E-1,-1.468182E-1,-1.1073425E-1,-9.394448E-2,-7.534132E-2,-2.9933328E-2,5.0425123E-2,-1.0379176E-3,2.8927032E-2,4.8514027E-2,8.140718E-2,1.2168721E-1,1.466074E-1,1.443903E-1,1.9821449E-1],"categories":[],"categories_nodes":[],"categories_segments":[],"categories_sizes":[],"default_left":[0,0,0,0,0,0,0,0,0,0,0,0,0,0,0,0,0,0,0,0,0,0,0,0,0,0,0,0,0,0,0,0,0,0,0,0,0,0,0,0,0,0,0,0,0,0,0,0,0,0,0],"id":25,"left_children":[1,3,5,7,9,11,13,15,17,19,21,23,25,27,29,31,33,35,37,39,41,43,45,47,49,-1,-1,-1,-1,-1,-1,-1,-1,-1,-1,-1,-1,-1,-1,-1,-1,-1,-1,-1,-1,-1,-1,-1,-1,-1,-1],"loss_changes":[7.4475796E3,1.5146221E3,1.4087354E3,1.8486426E2,3.122346E2,2.6907373E2,2.4804346E2,3.0682251E1,3.3108765E1,7.968741E1,3.542813E1,3.9027588E1,1.9459106E1,2.67854E1,3.8864746E1,4.730591E0,1.0849609E0,8.1036377E-1,9.70166E0,3.703186E0,9.926327E0,5.3460407E0,7.168648E0,1.9850159E0,4.6343994E-1,0E0,0E0,0E0,0E0,0E0,0E0,0E0,0E0,0E0,0E0,0E0,0E0,0E0,0E0,0E0,0E0,0E0,0E0,0E0,0E0,0E0,0E0,0E0,0E0,0E0,0E0],"parents":[2147483647,0,0,1,1,2,2,3,3,4,4,5,5,6,6,7,7,8,8,9,9,10,10,11,11,12,12,13,13,14,14,15,15,16,16,17,17,18,18,19,19,20,20,21,21,22,22,23,23,24,24],"right_children":[2,4,6,8,10,12,14,16,18,20,22,24,26,28,30,32,34,36,38,40,42,44,46,48,50,-1,-1,-1,-1,-1,-1,-1,-1,-1,-1,-1,-1,-1,-1,-1,-1,-1,-1,-1,-1,-1,-1,-1,-1,-1,-1],"split_conditions":[8E1,5E1,1.1E2,3.5E1,5.5E1,8.5E1,1.6E2,2.5E1,3.2E1,4.8E1,7E1,9E1,9.5E1,1.2E2,1.7E2,2E1,2.8E1,4E1,4.5E1,4.3E1,7E1,6.4E1,6.5E1,7.5E1,7.5E1,2.668141E-1,3.4176984E-1,4.287346E-1,5.5340564E-1,7.16794E-1,1.2728796E0,-4.4556388E-1,-2.9507038E-1,-2.3378222E-1,-1.5578717E-1,-1.9112754E-1,-1.6589823E-1,-1.468182E-1,-1.1073425E-1,-9.394448E-2,-7.534132E-2,-2.9933328E-2,5.0425123E-2,-1.0379176E-3,2.8927032E-2,4.8514027E-2,8.140718E-2,1.2168721E-1,1.466074E-1,1.443903E-1,1.9821449E-1],"split_indices":[7,7,6,7,6,6,7,7,6,6,7,7,6,6,7,7,6,7,7,6,7,7,6,6,6,0,0,0,0,0,0,0,0,0,0,0,0,0,0,0,0,0,0,0,0,0,0,0,0,0,0],"split_type":[0,0,0,0,0,0,0,0,0,0,0,0,0,0,0,0,0,0,0,0,0,0,0,0,0,0,0,0,0,0,0,0,0,0,0,0,0,0,0,0,0,0,0,0,0,0,0,0,0,0,0],"sum_hessian":[3.268E3,2.48E3,7.88E2,9.28E2,1.552E3,6.41E2,1.47E2,3.22E2,6.06E2,1.014E3,5.38E2,4.31E2,2.1E2,1.29E2,1.8E1,4.7E1,2.75E2,2.53E2,3.53E2,5.16E2,4.98E2,2.5E2,2.88E2,2.51E2,1.8E2,1.29E2,8.1E1,6.8E1,6.1E1,1.4E1,4E0,7E0,4E1,2.65E2,1E1,1.35E2,1.18E2,1.96E2,1.57E2,2.23E2,2.93E2,4.83E2,1.5E1,1.54E2,9.6E1,1.72E2,1.16E2,1.55E2,9.6E1,1.5E1,1.65E2],"tree_param":{"num_deleted":"0","num_feature":"8","num_nodes":"51","size_leaf_vector":"1"}},{"base_weights":[1.2067428E-2,-7.707618E-1,2.3778722E0,-1.7809517E0,-2.8827283E-1,1.7140353E0,4.60643E0,-2.2265835E0,-1.4801303E0,-7.3553705E-1,1.1782287E-1,1.3848369E0,2.5256796E0,4.0268326E0,7.269905E0,-3.1633554E0,-2.118019E0,-1.6259078E0,-1.3009684E-1,-8.1246114E-1,-4.4055557E-1,-1.1006861E-1,4.754E-1,1.1430459E0,1.7237006E0,2.3853068E-1,2.905348E-1,3.5978225E-1,4.6822834E-1,6.2173027E-1,1.1710498E0,-4.176673E-1,-2.7530923E-1,-2.3082002E-1,-1.9743972E-1,-1.7252986E-1,-1.494479E-1,-8.923575E-2,-7.049038E-2,-2.8753195E-2,-4.6073463E-2,-1.3399971E-2,5.116604E-2,3.8676515E-2,6.999134E-2,1.057963E-1,1.3049631E-1,1.5560016E-1,1.8393509E-1],"categories":[],"categories_nodes":[],"categories_segments":[],"categories_sizes":[],"default_left":[0,0,0,0,0,0,0,0,0,0,0,0,0,0,0,0,0,0,0,0,0,0,0,0,0,0,0,0,0,0,0,0,0,0,0,0,0,0,0,0,0,0,0,0,0,0,0,0,0],"id":26,"left_children":[1,3,5,7,9,11,13,15,17,19,21,23,25,27,29,31,33,35,-1,37,39,41,43,45,47,-1,-1,-1,-1,-1,-1,-1,-1,-1,-1,-1,-1,-1,-1,-1,-1,-1,-1,-1,-1,-1,-1,-1,-1],"loss_changes":[6.05609E3,1.197042E3,1.1948555E3,1.0314453E2,3.0232245E2,1.6429883E2,2.5786157E2,2.5640503E1,1.03428955E1,1.7613464E1,7.119203E1,3.4818176E1,2.663086E0,2.6739258E1,7.676599E1,1.3887634E0,3.309082E0,8.048706E-1,0E0,4.7590637E0,3.801117E-1,8.013763E0,6.495201E0,2.270172E0,7.258911E-1,0E0,0E0,0E0,0E0,0E0,0E0,0E0,0E0,0E0,0E0,0E0,0E0,0E0,0E0,0E0,0E0,0E0,0E0,0E0,0E0,0E0,0E0,0E0,0E0],"parents":[2147483647,0,0,1,1,2,2,3,3,4,4,5,5,6,6,7,7,8,8,9,9,10,10,11,11,12,12,13,13,14,14,15,15,16,16,17,17,19,19,20,20,21,21,22,22,23,23,24,24],"right_children":[2,4,6,8,10,12,14,16,18,20,22,24,26,28,30,32,34,36,-1,38,40,42,44,46,48,-1,-1,-1,-1,-1,-1,-1,-1,-1,-1,-1,-1,-1,-1,-1,-1,-1,-1,-1,-1,-1,-1,-1,-1],"split_conditions":[7.5E1,4E1,1.2E2,3.2E1,5.8E1,1E2,1.4E2,1.6E1,3.2E1,5.5E1,5.8E1,8.5E1,9.5E1,1.3E2,1.7E2,1.5E1,2.2E1,4E1,-1.3009684E-1,4.3E1,4.8E1,7E1,6.5E1,7.5E1,2.019E3,2.3853068E-1,2.905348E-1,3.5978225E-1,4.6822834E-1,6.2173027E-1,1.1710498E0,-4.176673E-1,-2.7530923E-1,-2.3082002E-1,-1.9743972E-1,-1.7252986E-1,-1.494479E-1,-8.923575E-2,-7.049038E-2,-2.8753195E-2,-4.6073463E-2,-1.3399971E-2,5.116604E-2,3.8676515E-2,6.999134E-2,1.057963E-1,1.3049631E-1,1.5560016E-1,1.8393509E-1],"split_indices":[7,6,7,7,7,7,6,6,6,7,6,7,6,7,7,6,6,7,0,6,6,7,6,6,0,0,0,0,0,0,0,0,0,0,0,0,0,0,0,0,0,0,0,0,0,0,0,0,0],"split_type":[0,0,0,0,0,0,0,0,0,0,0,0,0,0,0,0,0,0,0,0,0,0,0,0,0,0,0,0,0,0,0,0,0,0,0,0,0,0,0,0,0,0,0,0,0,0,0,0,0],"sum_hessian":[3.268E3,2.456E3,8.12E2,7.93E2,1.663E3,6.27E2,1.85E2,3.17E2,4.76E2,7.91E2,8.72E2,4.48E2,1.79E2,1.54E2,3.1E1,3E1,2.87E2,2.58E2,2.18E2,6.26E2,1.65E2,5.33E2,3.39E2,2.64E2,1.84E2,1.36E2,4.3E1,9.7E1,5.7E1,2.7E1,4E0,6E0,2.4E1,1.17E2,1.7E2,1.4E2,1.18E2,3.55E2,2.71E2,2.1E1,1.44E2,5.14E2,1.9E1,2.45E2,9.4E1,1.78E2,8.6E1,8.1E1,1.03E2],"tree_param":{"num_deleted":"0","num_feature":"8","num_nodes":"49","size_leaf_vector":"1"}},{"base_weights":[1.1492568E-2,-6.807003E-1,2.1880693E0,-1.5019914E0,-1.889681E-1,1.6568704E0,4.47754E0,-2.00199E0,-1.2334551E0,-4.554153E-1,3.131337E-1,1.284614E0,2.411173E0,4.227831E0,1.0773658E0,-2.6905282E0,-1.8779349E0,-1.4608173E0,-1.066835E0,-6.7633116E-1,-2.2561786E-1,9.211719E-2,5.0400573E-1,1.0706091E0,1.5754683E0,2.208813E-1,2.831724E-1,3.6614603E-1,5.251173E-1,-3.8186723E-1,-2.4322955E-1,-2.0508783E-1,-1.780845E-1,-1.5502906E-1,-1.3462865E-1,-1.1928787E-1,-9.029274E-2,-7.571586E-2,-6.1195403E-2,-4.154134E-2,-1.4594204E-2,3.2943234E-4,2.3310097E-2,3.9746292E-2,6.572356E-2,9.905255E-2,1.18836634E-1,1.1484895E-1,1.6071321E-1],"categories":[],"categories_nodes":[],"categories_segments":[],"categories_sizes":[],"default_left":[0,0,0,0,0,0,0,0,0,0,0,0,0,0,0,0,0,0,0,0,0,0,0,0,0,0,0,0,0,0,0,0,0,0,0,0,0,0,0,0,0,0,0,0,0,0,0,0,0],"id":27,"left_children":[1,3,5,7,9,11,13,15,17,19,21,23,25,27,-1,29,31,33,35,37,39,41,43,45,47,-1,-1,-1,-1,-1,-1,-1,-1,-1,-1,-1,-1,-1,-1,-1,-1,-1,-1,-1,-1,-1,-1,-1,-1],"loss_changes":[4.9266006E3,1.00168115E3,9.52135E2,1.22265625E2,2.0790857E2,1.7717236E2,1.8713599E2,2.2536865E1,2.1436646E1,5.13748E1,2.2691753E1,2.5202759E1,1.1701904E1,6.423413E1,0E0,4.4040527E0,9.9890137E-1,5.157471E-1,6.236389E0,2.226822E0,7.4853096E0,3.1424005E0,4.456856E0,1.1993408E0,6.0128784E-1,0E0,0E0,0E0,0E0,0E0,0E0,0E0,0E0,0E0,0E0,0E0,0E0,0E0,0E0,0E0,0E0,0E0,0E0,0E0,0E0,0E0,0E0,0E0,0E0],"parents":[2147483647,0,0,1,1,2,2,3,3,4,4,5,5,6,6,7,7,8,8,9,9,10,10,11,11,12,12,13,13,15,15,16,16,17,17,18,18,19,19,20,20,21,21,22,22,23,23,24,24],"right_children":[2,4,6,8,10,12,14,16,18,20,22,24,26,28,-1,30,32,34,36,38,40,42,44,46,48,-1,-1,-1,-1,-1,-1,-1,-1,-1,-1,-1,-1,-1,-1,-1,-1,-1,-1,-1,-1,-1,-1,-1,-1],"split_conditions":[8E1,5E1,1.1E2,3.5E1,5.5E1,8.5E1,1.7E2,2E1,3.2E1,4.8E1,7E1,9E1,1.1E2,1.3E2,1.0773658E0,1.5E1,3E1,4E1,4.5E1,4.4E1,5.8E1,6.4E1,6.5E1,7.5E1,7.5E1,2.208813E-1,2.831724E-1,3.6614603E-1,5.251173E-1,-3.8186723E-1,-2.4322955E-1,-2.0508783E-1,-1.780845E-1,-1.5502906E-1,-1.3462865E-1,-1.1928787E-1,-9.029274E-2,-7.571586E-2,-6.1195403E-2,-4.154134E-2,-1.4594204E-2,3.2943234E-4,2.3310097E-2,3.9746292E-2,6.572356E-2,9.905255E-2,1.18836634E-1,1.1484895E-1,1.6071321E-1],"split_indices":[7,7,6,7,6,6,7,6,6,6,7,7,7,6,0,6,7,7,7,6,7,7,6,6,6,0,0,0,0,0,0,0,0,0,0,0,0,0,0,0,0,0,0,0,0,0,0,0,0],"split_type":[0,0,0,0,0,0,0,0,0,0,0,0,0,0,0,0,0,0,0,0,0,0,0,0,0,0,0,0,0,0,0,0,0,0,0,0,0,0,0,0,0,0,0,0,0,0,0,0,0],"sum_hessian":[3.268E3,2.48E3,7.88E2,9.28E2,1.552E3,6.41E2,1.47E2,3.22E2,6.06E2,1.014E3,5.38E2,4.31E2,2.1E2,1.43E2,4E0,4.6E1,2.76E2,2.53E2,3.53E2,5.16E2,4.98E2,2.5E2,2.88E2,2.51E2,1.8E2,1.46E2,6.4E1,9.5E1,4.8E1,6E0,4E1,9.2E1,1.84E2,1.35E2,1.18E2,1.96E2,1.57E2,2.24E2,2.92E2,1.46E2,3.52E2,1.54E2,9.6E1,1.72E2,1.16E2,1.55E2,9.6E1,1.5E1,1.65E2],"tree_param":{"num_deleted":"0","num_feature":"8","num_nodes":"49","size_leaf_vector":"1"}},{"base_weights":[1.0770174E-2,-6.1904424E-1,1.9553087E0,-1.3534144E0,-1.7621094E-1,1.4791265E0,4.0430903E0,-1.8049123E0,-1.1109313E0,-4.1006398E-1,2.7366978E-1,1.1455606E0,2.1724465E0,3.6324189E0,7.2041054E0,-2.6071584E0,-1.7138729E0,-1.315876E0,-9.6074224E-1,-6.0896367E-1,-2.0316778E-1,8.299991E-2,4.4483694E-1,9.527146E-1,1.4194442E0,1.951816E-1,2.4957338E-1,3.299132E-1,4.3788168E-1,5.7490194E-1,1.159314E0,-3.4913582E-1,-2.2552963E-1,-1.8747054E-1,-1.5963043E-1,-1.3964012E-1,-1.2127896E-1,-1.0687738E-1,-8.0134585E-2,-6.81781E-2,-5.5096753E-2,-2.2343755E-2,4.2269062E-2,1.4373295E-3,2.3223288E-2,3.6868703E-2,5.809421E-2,6.169941E-2,9.763282E-2,1.04082204E-1,1.447387E-1],"categories":[],"categories_nodes":[],"categories_segments":[],"categories_sizes":[],"default_left":[0,0,0,0,0,0,0,0,0,0,0,0,0,0,0,0,0,0,0,0,0,0,0,0,0,0,0,0,0,0,0,0,0,0,0,0,0,0,0,0,0,0,0,0,0,0,0,0,0,0,0],"id":28,"left_children":[1,3,5,7,9,11,13,15,17,19,21,23,25,27,29,31,33,35,37,39,41,43,45,47,49,-1,-1,-1,-1,-1,-1,-1,-1,-1,-1,-1,-1,-1,-1,-1,-1,-1,-1,-1,-1,-1,-1,-1,-1,-1,-1],"loss_changes":[4.0047495E3,8.030142E2,7.893513E2,9.970239E1,1.6233983E2,1.4852917E2,1.659563E2,1.9122314E1,1.7419556E1,4.164514E1,1.719511E1,2.2045776E1,1.0178833E1,1.8639404E1,3.553357E1,1.7705688E0,2.5476685E0,4.149475E-1,5.2393494E0,1.8077087E0,6.424761E0,2.567242E0,2.667118E0,1.4825592E0,4.0847778E-1,0E0,0E0,0E0,0E0,0E0,0E0,0E0,0E0,0E0,0E0,0E0,0E0,0E0,0E0,0E0,0E0,0E0,0E0,0E0,0E0,0E0,0E0,0E0,0E0,0E0,0E0],"parents":[2147483647,0,0,1,1,2,2,3,3,4,4,5,5,6,6,7,7,8,8,9,9,10,10,11,11,12,12,13,13,14,14,15,15,16,16,17,17,18,18,19,19,20,20,21,21,22,22,23,23,24,24],"right_children":[2,4,6,8,10,12,14,16,18,20,22,24,26,28,30,32,34,36,38,40,42,44,46,48,50,-1,-1,-1,-1,-1,-1,-1,-1,-1,-1,-1,-1,-1,-1,-1,-1,-1,-1,-1,-1,-1,-1,-1,-1,-1,-1],"split_conditions":[7E1,5E1,1.1E2,3.5E1,5.5E1,8.5E1,1.5E2,1.6E1,3.2E1,4.8E1,7E1,9E1,9.5E1,1.3E2,1.6E2,1.5E1,2.2E1,4E1,3.8E1,4.4E1,7E1,5.8E1,6.5E1,8E1,7.5E1,1.951816E-1,2.4957338E-1,3.299132E-1,4.3788168E-1,5.7490194E-1,1.159314E0,-3.4913582E-1,-2.2552963E-1,-1.8747054E-1,-1.5963043E-1,-1.3964012E-1,-1.2127896E-1,-1.0687738E-1,-8.0134585E-2,-6.81781E-2,-5.5096753E-2,-2.2343755E-2,4.2269062E-2,1.4373295E-3,2.3223288E-2,3.6868703E-2,5.809421E-2,6.169941E-2,9.763282E-2,1.04082204E-1,1.447387E-1],"split_indices":[6,7,6,7,6,6,6,6,6,6,7,7,6,6,6,6,6,7,6,6,7,6,6,7,6,0,0,0,0,0,0,0,0,0,0,0,0,0,0,0,0,0,0,0,0,0,0,0,0,0,0],"split_type":[0,0,0,0,0,0,0,0,0,0,0,0,0,0,0,0,0,0,0,0,0,0,0,0,0,0,0,0,0,0,0,0,0,0,0,0,0,0,0,0,0,0,0,0,0,0,0,0,0,0,0],"sum_hessian":[3.268E3,2.469E3,7.99E2,9.28E2,1.541E3,6.52E2,1.47E2,3.22E2,6.06E2,1.014E3,5.27E2,4.42E2,2.1E2,1.32E2,1.5E1,3E1,2.92E2,2.53E2,3.53E2,5.16E2,4.98E2,2.5E2,2.77E2,2.62E2,1.8E2,1.29E2,8.1E1,9.5E1,3.7E1,1.3E1,2E0,6E0,2.4E1,1.17E2,1.75E2,1.35E2,1.18E2,2.07E2,1.46E2,2.24E2,2.92E2,4.83E2,1.5E1,1.72E2,7.8E1,1.8E2,9.7E1,1.9E1,2.43E2,1.5E1,1.65E2],"tree_param":{"num_deleted":"0","num_feature":"8","num_nodes":"51","size_leaf_vector":"1"}},{"base_weights":[1.0305194E-2,-5.525334E-1,1.7801306E0,-1.2195472E0,-1.5317196E-1,1.3449862E0,3.6556885E0,-1.627275E0,-1.0005758E0,-4.989641E-1,1.02282174E-1,1.0339241E0,1.9452449E0,3.437163E0,9.218079E-1,-2.2429056E0,-1.5272771E0,-1.1853145E0,-8.651966E-1,-5.5766934E-1,-3.251064E-1,-5.5258438E-2,4.066975E-1,8.5977393E-1,1.2552013E0,1.7491139E0,2.2492047E-1,3.0760236E0,4.558693E-1,-3.605586E-1,-2.050565E-1,-1.545528E-1,-9.388012E-2,-1.20803915E-1,-9.288358E-2,-9.692184E-2,-7.3002264E-2,-5.6530546E-2,-3.4919243E-2,-1.4908236E-2,-3.490755E-2,-1.5110775E-2,7.479743E-3,3.2581117E-2,5.3388413E-2,7.9685465E-2,9.619891E-2,1.2716502E-1,5.5253346E-2,1.364697E-1,1.795793E-1,2.7593276E-1,3.3765095E-1],"categories":[],"categories_nodes":[],"categories_segments":[],"categories_sizes":[],"default_left":[0,0,0,0,0,0,0,0,0,0,0,0,0,0,0,0,0,0,0,0,0,0,0,0,0,0,0,0,0,0,0,0,0,0,0,0,0,0,0,0,0,0,0,0,0,0,0,0,0,0,0,0,0],"id":29,"left_children":[1,3,5,7,9,11,13,15,17,19,21,23,25,27,-1,29,31,33,35,37,39,41,43,45,47,49,-1,51,-1,-1,-1,-1,-1,-1,-1,-1,-1,-1,-1,-1,-1,-1,-1,-1,-1,-1,-1,-1,-1,-1,-1,-1,-1],"loss_changes":[3.2573196E3,6.6070087E2,6.3901636E2,8.13136E1,1.3723378E2,1.1786145E2,1.4821326E2,1.6458862E1,1.4155457E1,6.5549164E0,4.289673E1,1.5298401E1,9.062134E0,4.4301514E1,0E0,3.8767548E0,1.5670166E0,3.5830688E-1,4.2700195E0,5.858154E-1,6.6099167E-1,7.366103E0,2.963791E0,7.83371E-1,1.4356079E0,7.6293945E-3,0E0,1.3413086E0,0E0,0E0,0E0,0E0,0E0,0E0,0E0,0E0,0E0,0E0,0E0,0E0,0E0,0E0,0E0,0E0,0E0,0E0,0E0,0E0,0E0,0E0,0E0,0E0,0E0],"parents":[2147483647,0,0,1,1,2,2,3,3,4,4,5,5,6,6,7,7,8,8,9,9,10,10,11,11,12,12,13,13,15,15,16,16,17,17,18,18,19,19,20,20,21,21,22,22,23,23,24,24,25,25,27,27],"right_children":[2,4,6,8,10,12,14,16,18,20,22,24,26,28,-1,30,32,34,36,38,40,42,44,46,48,50,-1,52,-1,-1,-1,-1,-1,-1,-1,-1,-1,-1,-1,-1,-1,-1,-1,-1,-1,-1,-1,-1,-1,-1,-1,-1,-1],"split_conditions":[8E1,5E1,1.1E2,3.5E1,6E1,1E2,1.7E2,2.2E1,3.2E1,5.5E1,7E1,8.5E1,9.5E1,1.5E2,9.218079E-1,1.4E1,2.8E1,2.022E3,4.5E1,2.022E3,4.8E1,5.5E1,6.5E1,7.5E1,9.5E1,8.5E1,2.2492047E-1,1.3E2,4.558693E-1,-3.605586E-1,-2.050565E-1,-1.545528E-1,-9.388012E-2,-1.20803915E-1,-9.288358E-2,-9.692184E-2,-7.3002264E-2,-5.6530546E-2,-3.4919243E-2,-1.4908236E-2,-3.490755E-2,-1.5110775E-2,7.479743E-3,3.2581117E-2,5.3388413E-2,7.9685465E-2,9.619891E-2,1.2716502E-1,5.5253346E-2,1.364697E-1,1.795793E-1,2.7593276E-1,3.3765095E-1],"split_indices":[7,7,6,7,7,7,7,7,6,7,7,7,6,7,0,6,6,0,7,0,6,6,6,6,7,6,0,7,0,0,0,0,0,0,0,0,0,0,0,0,0,0,0,0,0,0,0,0,0,0,0,0,0],"split_type":[0,0,0,0,0,0,0,0,0,0,0,0,0,0,0,0,0,0,0,0,0,0,0,0,0,0,0,0,0,0,0,0,0,0,0,0,0,0,0,0,0,0,0,0,0,0,0,0,0,0,0,0,0],"sum_hessian":[3.268E3,2.48E3,7.88E2,9.28E2,1.552E3,6.41E2,1.47E2,3.22E2,6.06E2,6.59E2,8.93E2,4.24E2,2.17E2,1.43E2,4E0,4.2E1,2.8E2,2.53E2,3.53E2,4.91E2,1.68E2,5.89E2,3.04E2,2.4E2,1.84E2,1.36E2,8.1E1,1.11E2,3.2E1,3E0,3.9E1,2.7E2,1E1,2.29E2,2.4E1,1.96E2,1.57E2,4.72E2,1.9E1,2.1E1,1.47E2,3.39E2,2.5E2,1.88E2,1.16E2,1.54E2,8.6E1,1.79E2,5E0,1.8E1,1.18E2,5.9E1,5.2E1],"tree_param":{"num_deleted":"0","num_feature":"8","num_nodes":"53","size_leaf_vector":"1"}},{"base_weights":[9.772676E-3,-5.0254685E-1,1.5915469E0,-1.1821978E0,-1.8698446E-1,1.2010853E0,3.3035734E0,-1.4710954E0,-9.825162E-1,-4.8709932E-1,8.522684E-2,9.222728E-1,1.7532007E0,3.139121E0,1.020572E0,-2.873521E-1,-1.4302899E0,-1.13854066E-1,-9.084911E-1,-5.36408E-1,-2.9465318E-1,-5.0482817E-2,3.5866424E-1,7.731779E-1,1.1423284E0,1.600175E0,2.0887816E-1,2.7738996E0,4.2181417E-1,-1.6050175E-1,-1.2942104E-1,-1.5999222E-2,-9.1268234E-2,-5.8990803E-2,-4.6225023E-2,-1.3485216E-2,-3.168668E-2,-1.06302075E-1,-4.0064943E-3,3.0116413E-2,4.705914E-2,7.0898235E-2,8.7572925E-2,1.1581432E-1,5.0649006E-2,1.2354126E-1,1.6393685E-1,2.487994E-1,3.0452284E-1],"categories":[],"categories_nodes":[],"categories_segments":[],"categories_sizes":[],"default_left":[0,0,0,0,0,0,0,0,0,0,0,0,0,0,0,0,0,0,0,0,0,0,0,0,0,0,0,0,0,0,0,0,0,0,0,0,0,0,0,0,0,0,0,0,0,0,0,0,0],"id":30,"left_children":[1,3,5,7,9,11,13,15,17,19,21,23,25,27,-1,-1,29,-1,31,33,35,37,39,41,43,45,-1,47,-1,-1,-1,-1,-1,-1,-1,-1,-1,-1,-1,-1,-1,-1,-1,-1,-1,-1,-1,-1,-1],"loss_changes":[2.6499119E3,5.2952545E2,5.308165E2,4.3723877E1,1.3794208E2,9.890369E1,1.3595374E2,1.4088135E1,4.34787E0,7.4618225E0,3.2895878E1,1.342157E1,7.852356E0,4.5835327E1,0E0,0E0,5.317383E0,0E0,8.6099243E-1,2.258545E0,5.4652977E-1,6.2126665E0,1.7504082E0,1.1105499E0,1.1631012E0,1.7636108E-1,0E0,1.1118164E0,0E0,0E0,0E0,0E0,0E0,0E0,0E0,0E0,0E0,0E0,0E0,0E0,0E0,0E0,0E0,0E0,0E0,0E0,0E0,0E0,0E0],"parents":[2147483647,0,0,1,1,2,2,3,3,4,4,5,5,6,6,7,7,8,8,9,9,10,10,11,11,12,12,13,13,16,16,18,18,19,19,20,20,21,21,22,22,23,23,24,24,25,25,27,27],"right_children":[2,4,6,8,10,12,14,16,18,20,22,24,26,28,-1,-1,30,-1,32,34,36,38,40,42,44,46,-1,48,-1,-1,-1,-1,-1,-1,-1,-1,-1,-1,-1,-1,-1,-1,-1,-1,-1,-1,-1,-1,-1],"split_conditions":[7E1,3.8E1,1.1E2,3.2E1,5.8E1,1E2,1.6E2,2E1,4E1,5.5E1,7E1,9E1,1.1E2,1.5E2,1.020572E0,-2.873521E-1,3E1,-1.13854066E-1,2.8E1,4.3E1,4.8E1,4.8E1,6.5E1,7.5E1,9.5E1,8.5E1,2.0887816E-1,1.3E2,4.2181417E-1,-1.6050175E-1,-1.2942104E-1,-1.5999222E-2,-9.1268234E-2,-5.8990803E-2,-4.6225023E-2,-1.3485216E-2,-3.168668E-2,-1.06302075E-1,-4.0064943E-3,3.0116413E-2,4.705914E-2,7.0898235E-2,8.7572925E-2,1.1581432E-1,5.0649006E-2,1.2354126E-1,1.6393685E-1,2.487994E-1,3.0452284E-1],"split_indices":[6,6,6,7,7,7,6,7,7,7,7,7,7,7,0,0,7,0,6,6,6,6,6,6,7,6,0,7,0,0,0,0,0,0,0,0,0,0,0,0,0,0,0,0,0,0,0,0,0],"split_type":[0,0,0,0,0,0,0,0,0,0,0,0,0,0,0,0,0,0,0,0,0,0,0,0,0,0,0,0,0,0,0,0,0,0,0,0,0,0,0,0,0,0,0,0,0,0,0,0,0],"sum_hessian":[3.268E3,2.469E3,7.99E2,7.82E2,1.687E3,6.52E2,1.47E2,3.17E2,4.65E2,8.02E2,8.85E2,4.35E2,2.17E2,1.45E2,2E0,7E0,3.1E2,1.45E2,3.2E2,6.37E2,1.65E2,5.92E2,2.93E2,2.62E2,1.73E2,1.53E2,6.4E1,1.11E2,3.4E1,1.31E2,1.79E2,2E0,3.18E2,3.66E2,2.71E2,2.1E1,1.44E2,5E0,5.87E2,1.96E2,9.7E1,1.66E2,9.6E1,1.68E2,5E0,1.8E1,1.35E2,5.9E1,5.2E1],"tree_param":{"num_deleted":"0","num_feature":"8","num_nodes":"49","size_leaf_vector":"1"}},{"base_weights":[9.356449E-3,-4.4859844E-1,1.4493777E0,-9.9085826E-1,-1.2393137E-1,1.0927217E0,2.9867005E0,-1.2339588E0,-7.4771816E-1,-3.0101553E-1,2.0976873E-1,8.4012574E-1,1.5801554E0,2.8318882E0,9.52534E-1,-1.822913E0,-1.1630363E0,-8.179777E-1,-5.892077E-1,-4.4422293E-1,-1.520391E-1,-2.1943615E-3,2.9455966E-1,7.0634264E-1,1.0290523E0,1.442021E0,1.8831174E-1,2.4068967E-1,3.5763447E0,-3.119653E-1,-1.6671382E-1,-1.36175E-1,-1.09414935E-1,-1.4932632E-2,-8.217018E-2,-5.9292156E-2,-2.1330262E-2,-4.376423E-2,-1.1787806E-1,-1.6747113E-2,3.2428216E-2,-7.826911E-4,2.8579712E-2,2.3437198E-2,4.3042228E-2,6.503805E-2,7.8906186E-2,9.641272E-2,1.2161478E-1,1.1183721E-1,1.4766335E-1,3.1374678E-1,4.2695424E-1],"categories":[],"categories_nodes":[],"categories_segments":[],"categories_sizes":[],"default_left":[0,0,0,0,0,0,0,0,0,0,0,0,0,0,0,0,0,0,0,0,0,0,0,0,0,0,0,0,0,0,0,0,0,0,0,0,0,0,0,0,0,0,0,0,0,0,0,0,0,0,0,0,0],"id":31,"left_children":[1,3,5,7,9,11,13,15,17,19,21,23,25,27,-1,29,31,33,35,37,39,41,43,45,47,49,-1,-1,51,-1,-1,-1,-1,-1,-1,-1,-1,-1,-1,-1,-1,-1,-1,-1,-1,-1,-1,-1,-1,-1,-1,-1,-1],"loss_changes":[2.1564407E3,4.366669E2,4.2934167E2,5.398828E1,9.183458E1,7.7717896E1,1.2284021E2,1.7219421E1,4.7189636E0,2.1586998E1,9.687849E0,1.0015106E1,6.407654E0,3.7584595E1,0E0,4.4950867E0,4.20459E0,6.766052E-1,7.8746796E-2,1.9832306E0,3.7222595E0,2.536665E-1,3.047367E0,6.5335846E-1,9.410858E-1,7.376099E-2,0E0,0E0,2.1201172E0,0E0,0E0,0E0,0E0,0E0,0E0,0E0,0E0,0E0,0E0,0E0,0E0,0E0,0E0,0E0,0E0,0E0,0E0,0E0,0E0,0E0,0E0,0E0,0E0],"parents":[2147483647,0,0,1,1,2,2,3,3,4,4,5,5,6,6,7,7,8,8,9,9,10,10,11,11,12,12,13,13,15,15,16,16,17,17,18,18,19,19,20,20,21,21,22,22,23,23,24,24,25,25,28,28],"right_children":[2,4,6,8,10,12,14,16,18,20,22,24,26,28,-1,30,32,34,36,38,40,42,44,46,48,50,-1,-1,52,-1,-1,-1,-1,-1,-1,-1,-1,-1,-1,-1,-1,-1,-1,-1,-1,-1,-1,-1,-1,-1,-1,-1,-1],"split_conditions":[8E1,5E1,1.1E2,4E1,5.5E1,1E2,1.6E2,2.5E1,3.8E1,4.8E1,6.4E1,9E1,1.1E2,1.3E2,9.52534E-1,1.4E1,2.2E1,2.8E1,4.3E1,6.2E1,7E1,5.8E1,6.5E1,7.5E1,2.022E3,8.5E1,1.8831174E-1,2.4068967E-1,1.6E2,-3.119653E-1,-1.6671382E-1,-1.36175E-1,-1.09414935E-1,-1.4932632E-2,-8.217018E-2,-5.9292156E-2,-2.1330262E-2,-4.376423E-2,-1.1787806E-1,-1.6747113E-2,3.2428216E-2,-7.826911E-4,2.8579712E-2,2.3437198E-2,4.3042228E-2,6.503805E-2,7.8906186E-2,9.641272E-2,1.2161478E-1,1.1183721E-1,1.4766335E-1,3.1374678E-1,4.2695424E-1],"split_indices":[7,7,6,7,6,7,6,7,6,6,7,7,7,6,0,6,6,6,6,7,7,6,6,6,0,6,0,0,7,0,0,0,0,0,0,0,0,0,0,0,0,0,0,0,0,0,0,0,0,0,0,0,0],"split_type":[0,0,0,0,0,0,0,0,0,0,0,0,0,0,0,0,0,0,0,0,0,0,0,0,0,0,0,0,0,0,0,0,0,0,0,0,0,0,0,0,0,0,0,0,0,0,0,0,0,0,0,0,0],"sum_hessian":[3.268E3,2.48E3,7.88E2,9.28E2,1.552E3,6.41E2,1.47E2,4.62E2,4.66E2,1.014E3,5.38E2,4.24E2,2.17E2,1.45E2,2E0,4.7E1,4.15E2,3.2E2,1.46E2,5.16E2,4.98E2,1.54E2,3.84E2,2.51E2,1.73E2,1.53E2,6.4E1,9.5E1,5E1,3E0,4.4E1,1.02E2,3.13E2,2E0,3.18E2,1.44E2,2E0,5.13E2,3E0,4.83E2,1.5E1,1.52E2,2E0,2.68E2,1.16E2,1.55E2,9.6E1,1.33E2,4E1,1.8E1,1.35E2,3.4E1,1.6E1],"tree_param":{"num_deleted":"0","num_feature":"8","num_nodes":"53","size_leaf_vector":"1"}},{"base_weights":[8.967962E-3,-4.0412325E-1,1.3079164E0,-8.927442E-1,-1.1157144E-1,9.8471034E-1,2.7010949E0,-1.1924285E0,-7.2797805E-1,-2.7105716E-1,1.8896581E-1,7.6220584E-1,1.4355977E0,2.5554183E0,8.89032E-1,-2.4217442E-1,-1.1580766E0,-8.6642104E-1,-6.2854224E-1,-4.001115E-1,-1.3680436E-1,-1.7962548E-3,2.652753E-1,6.2960595E-1,9.2467654E-1,1.28647E0,1.6545121E-1,2.2518175E0,3.453929E-1,-1.2944657E-1,-1.0412335E-1,-3.995982E-2,-8.842814E-2,-7.017704E-2,-5.332607E-2,-3.939614E-2,-1.0903721E-1,-2.6681596E-2,-8.069422E-3,-7.0500094E-4,2.66744E-2,2.110216E-2,3.8774516E-2,5.8472134E-2,7.02336E-2,8.511477E-2,1.1112731E-1,1.2565033E-1,2.1362256E-1,2.0404978E-1,2.5320277E-1],"categories":[],"categories_nodes":[],"categories_segments":[],"categories_sizes":[],"default_left":[0,0,0,0,0,0,0,0,0,0,0,0,0,0,0,0,0,0,0,0,0,0,0,0,0,0,0,0,0,0,0,0,0,0,0,0,0,0,0,0,0,0,0,0,0,0,0,0,0,0,0],"id":32,"left_children":[1,3,5,7,9,11,13,15,17,19,21,23,25,27,-1,-1,29,31,33,35,37,39,41,43,45,47,-1,49,-1,-1,-1,-1,-1,-1,-1,-1,-1,-1,-1,-1,-1,-1,-1,-1,-1,-1,-1,-1,-1,-1,-1],"loss_changes":[1.7546222E3,3.545518E2,3.5261414E2,4.5003906E1,7.448868E1,6.3314087E1,1.10722046E2,1.1046661E1,7.7426453E0,1.753106E1,7.846674E0,8.724686E0,4.7598267E0,3.204944E1,0E0,0E0,3.7676086E0,1.7227173E0,2.095749E0,1.7651901E0,3.618659E0,2.2056144E-1,2.4762878E0,3.760605E-1,1.6884308E0,6.261902E-1,0E0,1.465332E0,0E0,0E0,0E0,0E0,0E0,0E0,0E0,0E0,0E0,0E0,0E0,0E0,0E0,0E0,0E0,0E0,0E0,0E0,0E0,0E0,0E0,0E0,0E0],"parents":[2147483647,0,0,1,1,2,2,3,3,4,4,5,5,6,6,7,7,8,8,9,9,10,10,11,11,12,12,13,13,16,16,17,17,18,18,19,19,20,20,21,21,22,22,23,23,24,24,25,25,27,27],"right_children":[2,4,6,8,10,12,14,16,18,20,22,24,26,28,-1,-1,30,32,34,36,38,40,42,44,46,48,-1,50,-1,-1,-1,-1,-1,-1,-1,-1,-1,-1,-1,-1,-1,-1,-1,-1,-1,-1,-1,-1,-1,-1,-1],"split_conditions":[8E1,5E1,1.1E2,2.8E1,5.5E1,8.5E1,1.6E2,2E1,3.2E1,4.8E1,6.4E1,8.5E1,9.5E1,1.5E2,8.89032E-1,-2.4217442E-1,2.2E1,3E1,4.5E1,6.2E1,6E1,5.8E1,6.5E1,7.5E1,2.022E3,1.1E2,1.6545121E-1,1.2E2,3.453929E-1,-1.2944657E-1,-1.0412335E-1,-3.995982E-2,-8.842814E-2,-7.017704E-2,-5.332607E-2,-3.939614E-2,-1.0903721E-1,-2.6681596E-2,-8.069422E-3,-7.0500094E-4,2.66744E-2,2.110216E-2,3.8774516E-2,5.8472134E-2,7.02336E-2,8.511477E-2,1.1112731E-1,1.2565033E-1,2.1362256E-1,2.0404978E-1,2.5320277E-1],"split_indices":[7,7,6,6,6,6,6,7,6,6,7,7,6,7,0,0,6,6,7,7,7,6,6,6,0,7,0,6,0,0,0,0,0,0,0,0,0,0,0,0,0,0,0,0,0,0,0,0,0,0,0],"split_type":[0,0,0,0,0,0,0,0,0,0,0,0,0,0,0,0,0,0,0,0,0,0,0,0,0,0,0,0,0,0,0,0,0,0,0,0,0,0,0,0,0,0,0,0,0,0,0,0,0,0,0],"sum_hessian":[3.268E3,2.48E3,7.88E2,9.28E2,1.552E3,6.41E2,1.47E2,3.27E2,6.01E2,1.014E3,5.38E2,4.31E2,2.1E2,1.45E2,2E0,7E0,3.2E2,2.48E2,3.53E2,5.16E2,4.98E2,1.54E2,3.84E2,2.4E2,1.91E2,1.29E2,8.1E1,1.11E2,3.4E1,1.43E2,1.77E2,1E1,2.38E2,1.96E2,1.57E2,5.13E2,3E0,1.49E2,3.49E2,1.52E2,2E0,2.68E2,1.16E2,1.54E2,8.6E1,1.41E2,5E1,1.27E2,2E0,6.8E1,4.3E1],"tree_param":{"num_deleted":"0","num_feature":"8","num_nodes":"51","size_leaf_vector":"1"}},{"base_weights":[8.589546E-3,-3.6752975E-1,1.1698471E0,-8.0425334E-1,-1.04181E-1,8.7963295E-1,2.4424145E0,-1.07913E0,-6.5665954E-1,-3.291744E-1,6.410872E-2,6.7453337E-1,1.2857971E0,2.3053732E0,8.2976276E-1,-1.6414046E0,-1.0159572E0,-7.803734E-1,-5.6603813E-1,-3.6736706E-1,-2.1603854E-1,-6.467569E-2,2.2265086E-1,5.6631184E-1,8.34233E-1,1.1729747E0,1.533318E-1,1.9520037E-1,2.9253361E0,-2.704048E-1,-1.430977E-1,-1.1195462E-1,-9.494321E-2,-7.97989E-2,-5.870949E-2,-6.319515E-2,-4.802726E-2,-3.7447166E-2,-1.8097535E-2,-4.2599766E-3,-2.4036026E-2,-9.382406E-3,-1.4484036E-4,-1.5295105E-1,2.3095889E-2,5.2598305E-2,7.55085E-2,8.487611E-2,2.8598532E-2,1.12632506E-1,1.429211E-1,2.5419313E-1,3.5426205E-1],"categories":[],"categories_nodes":[],"categories_segments":[],"categories_sizes":[],"default_left":[0,0,0,0,0,0,0,0,0,0,0,0,0,0,0,0,0,0,0,0,0,0,0,0,0,0,0,0,0,0,0,0,0,0,0,0,0,0,0,0,0,0,0,0,0,0,0,0,0,0,0,0,0],"id":33,"left_children":[1,3,5,7,9,11,13,15,17,19,21,23,25,27,-1,29,31,33,35,37,39,41,43,45,47,49,-1,-1,51,-1,-1,-1,-1,-1,-1,-1,-1,-1,-1,-1,-1,-1,-1,-1,-1,-1,-1,-1,-1,-1,-1,-1,-1],"loss_changes":[1.4282355E3,2.839924E2,2.933053E2,3.6981018E1,5.840751E1,5.3530304E1,9.962714E1,9.805542E0,6.363434E0,2.7724686E0,1.8043278E1,7.062912E0,4.289276E0,2.6274841E1,0E0,3.0624619E0,9.562073E-1,3.9630127E-1,1.6976852E0,5.837555E-1,7.0265865E-1,8.9923453E-1,6.1178303E0,1.6050568E0,1.1431656E0,2.310791E-1,0E0,0E0,3.065033E0,0E0,0E0,0E0,0E0,0E0,0E0,0E0,0E0,0E0,0E0,0E0,0E0,0E0,0E0,0E0,0E0,0E0,0E0,0E0,0E0,0E0,0E0,0E0,0E0],"parents":[2147483647,0,0,1,1,2,2,3,3,4,4,5,5,6,6,7,7,8,8,9,9,10,10,11,11,12,12,13,13,15,15,16,16,17,17,18,18,19,19,20,20,21,21,22,22,23,23,24,24,25,25,28,28],"right_children":[2,4,6,8,10,12,14,16,18,20,22,24,26,28,-1,30,32,34,36,38,40,42,44,46,48,50,-1,-1,52,-1,-1,-1,-1,-1,-1,-1,-1,-1,-1,-1,-1,-1,-1,-1,-1,-1,-1,-1,-1,-1,-1,-1,-1],"split_conditions":[7E1,5E1,1.1E2,3.5E1,6E1,1E2,1.6E2,1.6E1,3.2E1,5.5E1,6.4E1,9E1,1.1E2,1.3E2,8.2976276E-1,1.4E1,3E1,2.022E3,4.5E1,2.022E3,4.8E1,5.5E1,4.3E1,2.022E3,9.5E1,9.5E1,1.533318E-1,1.9520037E-1,1.6E2,-2.704048E-1,-1.430977E-1,-1.1195462E-1,-9.494321E-2,-7.97989E-2,-5.870949E-2,-6.319515E-2,-4.802726E-2,-3.7447166E-2,-1.8097535E-2,-4.2599766E-3,-2.4036026E-2,-9.382406E-3,-1.4484036E-4,-1.5295105E-1,2.3095889E-2,5.2598305E-2,7.55085E-2,8.487611E-2,2.8598532E-2,1.12632506E-1,1.429211E-1,2.5419313E-1,3.5426205E-1],"split_indices":[6,7,6,7,7,7,6,6,6,7,7,7,7,6,0,6,7,0,7,0,6,6,6,0,7,6,0,0,7,0,0,0,0,0,0,0,0,0,0,0,0,0,0,0,0,0,0,0,0,0,0,0,0],"split_type":[0,0,0,0,0,0,0,0,0,0,0,0,0,0,0,0,0,0,0,0,0,0,0,0,0,0,0,0,0,0,0,0,0,0,0,0,0,0,0,0,0,0,0,0,0,0,0,0,0,0,0,0,0],"sum_hessian":[3.268E3,2.469E3,7.99E2,9.28E2,1.541E3,6.52E2,1.47E2,3.22E2,6.06E2,6.59E2,8.82E2,4.35E2,2.17E2,1.45E2,2E0,3E1,2.92E2,2.53E2,3.53E2,4.91E2,1.68E2,4.87E2,3.95E2,2.62E2,1.73E2,1.53E2,6.4E1,9.5E1,5E1,3E0,2.7E1,1.08E2,1.84E2,2.29E2,2.4E1,1.96E2,1.57E2,4.72E2,1.9E1,2.1E1,1.47E2,3.33E2,1.54E2,1E0,3.94E2,2.19E2,4.3E1,1.68E2,5E0,1.34E2,1.9E1,3.4E1,1.6E1],"tree_param":{"num_deleted":"0","num_feature":"8","num_nodes":"53","size_leaf_vector":"1"}},{"base_weights":[8.095422E-3,-3.282223E-1,1.0656317E0,-6.594282E-1,-4.202486E-2,8.003432E-1,2.2092104E0,-9.064616E-1,-4.922249E-1,-1.5307125E-1,2.1162549E-1,6.180516E-1,1.1697727E0,2.0803409E0,7.744456E-1,-1.3760751E0,-8.5135776E-1,-5.940794E-1,-4.0204144E-1,-2.5883523E-1,-5.8627408E-2,1.6652022E-1,3.216161E-2,4.7107255E-1,7.1162164E-1,1.0678222E0,1.3823414E-1,1.8283085E0,2.8274066E0,-2.5012442E-1,-1.2425126E-1,-9.923362E-2,-8.019529E-2,-1.534462E-3,-5.9765972E-2,-3.9521847E-2,-1.4530353E-1,-2.9630473E-2,-1.9588022E-2,-8.481863E-3,-1.3043804E-4,1.3885031E-2,2.9977728E-2,3.468573E-2,5.537281E-2,6.587365E-2,9.520071E-2,1.02422774E-1,1.2934357E-1,1.6140656E-1,2.036351E-1,7.536163E-2,2.8662354E-1],"categories":[],"categories_nodes":[],"categories_segments":[],"categories_sizes":[],"default_left":[0,0,0,0,0,0,0,0,0,0,0,0,0,0,0,0,0,0,0,0,0,0,0,0,0,0,0,0,0,0,0,0,0,0,0,0,0,0,0,0,0,0,0,0,0,0,0,0,0,0,0,0,0],"id":34,"left_children":[1,3,5,7,9,11,13,15,17,19,21,23,25,27,-1,29,31,33,35,37,39,41,-1,43,45,47,-1,49,51,-1,-1,-1,-1,-1,-1,-1,-1,-1,-1,-1,-1,-1,-1,-1,-1,-1,-1,-1,-1,-1,-1,-1,-1],"loss_changes":[1.1630292E3,2.3514697E2,2.3759735E2,4.705432E1,3.7550785E1,4.251181E1,8.946088E1,1.0809753E1,6.080826E0,9.244404E0,1.9606743E0,5.6059875E0,3.0965881E0,2.2320251E1,0E0,3.9553528E0,2.108612E0,6.559677E-1,2.064621E0,9.727955E-1,7.370573E-1,1.0276651E0,0E0,1.5636063E0,2.7036438E0,1.2104797E-1,0E0,1.7052002E0,6.5823364E-1,0E0,0E0,0E0,0E0,0E0,0E0,0E0,0E0,0E0,0E0,0E0,0E0,0E0,0E0,0E0,0E0,0E0,0E0,0E0,0E0,0E0,0E0,0E0,0E0],"parents":[2147483647,0,0,1,1,2,2,3,3,4,4,5,5,6,6,7,7,8,8,9,9,10,10,11,11,12,12,13,13,15,15,16,16,17,17,18,18,19,19,20,20,21,21,23,23,24,24,25,25,27,27,28,28],"right_children":[2,4,6,8,10,12,14,16,18,20,22,24,26,28,-1,30,32,34,36,38,40,42,-1,44,46,48,-1,50,52,-1,-1,-1,-1,-1,-1,-1,-1,-1,-1,-1,-1,-1,-1,-1,-1,-1,-1,-1,-1,-1,-1,-1,-1],"split_conditions":[8E1,4.3E1,1.1E2,4E1,6.4E1,8.5E1,1.6E2,2E1,3.8E1,5.8E1,6.5E1,7.5E1,1.1E2,1.5E2,7.744456E-1,1.4E1,2.2E1,2.8E1,5.2E1,5.5E1,5.5E1,2.022E3,3.216161E-2,7E0,2.022E3,9.5E1,1.3823414E-1,1.3E2,1.3E2,-2.5012442E-1,-1.2425126E-1,-9.923362E-2,-8.019529E-2,-1.534462E-3,-5.9765972E-2,-3.9521847E-2,-1.4530353E-1,-2.9630473E-2,-1.9588022E-2,-8.481863E-3,-1.3043804E-4,1.3885031E-2,2.9977728E-2,3.468573E-2,5.537281E-2,6.587365E-2,9.520071E-2,1.02422774E-1,1.2934357E-1,1.6140656E-1,2.036351E-1,7.536163E-2,2.8662354E-1],"split_indices":[7,6,6,7,7,6,6,6,6,7,6,6,7,7,0,6,6,6,7,7,6,0,0,1,0,6,0,7,6,0,0,0,0,0,0,0,0,0,0,0,0,0,0,0,0,0,0,0,0,0,0,0,0],"split_type":[0,0,0,0,0,0,0,0,0,0,0,0,0,0,0,0,0,0,0,0,0,0,0,0,0,0,0,0,0,0,0,0,0,0,0,0,0,0,0,0,0,0,0,0,0,0,0,0,0,0,0,0,0],"sum_hessian":[3.268E3,2.48E3,7.88E2,1.149E3,1.331E3,6.41E2,1.47E2,4.62E2,6.87E2,9.26E2,4.05E2,4.31E2,2.1E2,1.45E2,2E0,4.6E1,4.16E2,3.2E2,3.67E2,4.36E2,4.9E2,2.89E2,1.16E2,1.7E2,2.61E2,1.46E2,6.4E1,1.11E2,3.4E1,3E0,4.3E1,1.03E2,3.13E2,2E0,3.18E2,3.66E2,1E0,2.71E2,1.65E2,3.36E2,1.54E2,2.41E2,4.8E1,7E1,1E2,2.17E2,4.4E1,1.27E2,1.9E1,5.9E1,5.2E1,1E0,3.3E1],"tree_param":{"num_deleted":"0","num_feature":"8","num_nodes":"53","size_leaf_vector":"1"}},{"base_weights":[7.6956116E-3,-2.9571584E-1,9.6175915E-1,-5.9418184E-1,-3.780924E-2,7.2127646E-1,1.9984357E0,-8.1701165E-1,-4.433615E-1,-1.3782771E-1,1.9065118E-1,5.568287E-1,1.0545473E0,1.8772877E0,7.2281593E-1,-1.35818E0,-7.763806E-1,-5.348635E-1,-3.623411E-1,-2.3306525E-1,-5.2783664E-2,1.5001936E-1,2.8973305E-1,4.5839062E-1,6.7748886E-1,9.626154E-1,1.2462311E-1,1.7239509E0,2.9394352E-1,-2.3136511E-1,-1.1731777E-1,-9.1217265E-2,-7.2201304E-2,-1.4321645E-3,-5.380822E-2,-3.5580587E-2,-1.3803844E-1,-2.6678491E-2,-1.7640974E-2,-7.636372E-3,-1.1755175E-4,1.2502219E-2,2.7041316E-2,2.7311835E-2,3.4576185E-2,7.2309114E-2,4.4380147E-2,7.974683E-2,5.8275193E-2,9.226033E-2,1.1705615E-1,1.4824615E-1,1.9648997E-1],"categories":[],"categories_nodes":[],"categories_segments":[],"categories_sizes":[],"default_left":[0,0,0,0,0,0,0,0,0,0,0,0,0,0,0,0,0,0,0,0,0,0,0,0,0,0,0,0,0,0,0,0,0,0,0,0,0,0,0,0,0,0,0,0,0,0,0,0,0,0,0,0,0],"id":35,"left_children":[1,3,5,7,9,11,13,15,17,19,21,23,25,27,-1,29,31,33,35,37,39,41,43,45,47,49,-1,51,-1,-1,-1,-1,-1,-1,-1,-1,-1,-1,-1,-1,-1,-1,-1,-1,-1,-1,-1,-1,-1,-1,-1,-1,-1],"loss_changes":[9.465743E2,1.9095587E2,1.9525848E2,3.8286102E1,3.0462828E1,3.4598022E1,8.01991E1,9.126068E0,4.9066925E0,7.4958267E0,1.5910416E0,4.8205414E0,2.5185852E0,1.871106E1,0E0,2.7653694E0,2.5381165E0,5.3012085E-1,1.9572105E0,7.877846E-1,5.974194E-1,8.3894825E-1,1.44815445E-2,6.0977554E-1,1.7176285E0,1.4311218E-1,0E0,4.651367E0,0E0,0E0,0E0,0E0,0E0,0E0,0E0,0E0,0E0,0E0,0E0,0E0,0E0,0E0,0E0,0E0,0E0,0E0,0E0,0E0,0E0,0E0,0E0,0E0,0E0],"parents":[2147483647,0,0,1,1,2,2,3,3,4,4,5,5,6,6,7,7,8,8,9,9,10,10,11,11,12,12,13,13,15,15,16,16,17,17,18,18,19,19,20,20,21,21,22,22,23,23,24,24,25,25,27,27],"right_children":[2,4,6,8,10,12,14,16,18,20,22,24,26,28,-1,30,32,34,36,38,40,42,44,46,48,50,-1,52,-1,-1,-1,-1,-1,-1,-1,-1,-1,-1,-1,-1,-1,-1,-1,-1,-1,-1,-1,-1,-1,-1,-1,-1,-1],"split_conditions":[8E1,4.3E1,1.1E2,4E1,6.4E1,8.5E1,1.6E2,1.6E1,3.8E1,5.8E1,6.5E1,8.5E1,1.1E2,1.6E2,7.2281593E-1,1.4E1,2.2E1,2.8E1,5.2E1,5.5E1,5.5E1,2.022E3,7.5E1,3E0,1.5E1,9.5E1,1.2462311E-1,1.2E2,2.9394352E-1,-2.3136511E-1,-1.1731777E-1,-9.1217265E-2,-7.2201304E-2,-1.4321645E-3,-5.380822E-2,-3.5580587E-2,-1.3803844E-1,-2.6678491E-2,-1.7640974E-2,-7.636372E-3,-1.1755175E-4,1.2502219E-2,2.7041316E-2,2.7311835E-2,3.4576185E-2,7.2309114E-2,4.4380147E-2,7.974683E-2,5.8275193E-2,9.226033E-2,1.1705615E-1,1.4824615E-1,1.9648997E-1],"split_indices":[7,6,6,7,7,6,6,6,6,7,6,7,7,7,0,6,6,6,7,7,6,0,7,2,2,6,0,6,0,0,0,0,0,0,0,0,0,0,0,0,0,0,0,0,0,0,0,0,0,0,0,0,0],"split_type":[0,0,0,0,0,0,0,0,0,0,0,0,0,0,0,0,0,0,0,0,0,0,0,0,0,0,0,0,0,0,0,0,0,0,0,0,0,0,0,0,0,0,0,0,0,0,0,0,0,0,0,0,0],"sum_hessian":[3.268E3,2.48E3,7.88E2,1.149E3,1.331E3,6.41E2,1.47E2,4.62E2,6.87E2,9.26E2,4.05E2,4.31E2,2.1E2,1.45E2,2E0,3E1,4.32E2,3.2E2,3.67E2,4.36E2,4.9E2,2.89E2,1.16E2,2.4E2,1.91E2,1.46E2,6.4E1,1.29E2,1.6E1,3E0,2.7E1,1.19E2,3.13E2,2E0,3.18E2,3.66E2,1E0,2.71E2,1.65E2,3.36E2,1.54E2,2.41E2,4.8E1,9.4E1,2.2E1,1E1,2.3E2,8.1E1,1.1E2,1.27E2,1.9E1,6.8E1,6.1E1],"tree_param":{"num_deleted":"0","num_feature":"8","num_nodes":"53","size_leaf_vector":"1"}},{"base_weights":[7.310994E-3,-2.664229E-1,8.6805433E-1,-5.354079E-1,-3.3991084E-2,6.500648E-1,1.8077922E0,-7.36417E-1,-3.993576E-1,-1.2410065E-1,1.7183541E-1,4.9750584E-1,9.445029E-1,1.6939341E0,6.746287E-1,-1.129119E0,-6.89335E-1,-4.8154736E-1,-3.265797E-1,-2.098599E-1,-4.752042E-2,1.3515356E-1,2.6128754E-1,3.770113E-1,5.7635707E-1,8.6280966E-1,1.1235223E-1,1.4832938E0,2.3195848E0,-2.1401273E-1,-1.01416014E-1,-7.38225E-2,-5.85497E-2,-1.3367336E-3,-4.8444074E-2,-3.2032315E-2,-1.3113652E-1,-2.4020301E-2,-1.5887683E-2,-6.874936E-3,-1.0580247E-4,-3.5810724E-2,1.3982243E-2,2.4609264E-2,3.1268876E-2,2.6594823E-2,4.5135256E-2,5.335709E-2,8.2181804E-2,7.57601E-2,9.393015E-2,1.3095723E-1,1.651973E-1,1.927156E-1,2.7705744E-1],"categories":[],"categories_nodes":[],"categories_segments":[],"categories_sizes":[],"default_left":[0,0,0,0,0,0,0,0,0,0,0,0,0,0,0,0,0,0,0,0,0,0,0,0,0,0,0,0,0,0,0,0,0,0,0,0,0,0,0,0,0,0,0,0,0,0,0,0,0,0,0,0,0,0,0],"id":36,"left_children":[1,3,5,7,9,11,13,15,17,19,21,23,25,27,-1,29,31,33,35,37,39,41,43,45,47,49,-1,51,53,-1,-1,-1,-1,-1,-1,-1,-1,-1,-1,-1,-1,-1,-1,-1,-1,-1,-1,-1,-1,-1,-1,-1,-1,-1,-1],"loss_changes":[7.7045544E2,1.5509558E2,1.604538E2,3.1155365E1,2.4725843E1,2.8368225E1,7.17908E1,7.7821655E0,3.9580765E0,6.078066E0,1.2968807E0,3.8206863E0,2.2187805E0,1.5800293E1,0E0,3.4083443E0,1.6796417E0,4.2835236E-1,1.8473129E0,6.378689E-1,4.8422396E-1,7.1792984E-1,1.4430046E-2,1.2918377E0,2.2396011E0,5.277176E-1,0E0,1.118576E0,8.55011E-1,0E0,0E0,0E0,0E0,0E0,0E0,0E0,0E0,0E0,0E0,0E0,0E0,0E0,0E0,0E0,0E0,0E0,0E0,0E0,0E0,0E0,0E0,0E0,0E0,0E0,0E0],"parents":[2147483647,0,0,1,1,2,2,3,3,4,4,5,5,6,6,7,7,8,8,9,9,10,10,11,11,12,12,13,13,15,15,16,